rep,gen,indType,indNum,quality,fitness,0,1,2,3,4,5,6,7,8,9,10,11,12,13,14,15,16,17,18,19,20,21,22,23,24,25,26,27,28,29,30,31,32,33,34,35,36,37,38
1,0,Sender,0,0.127713,0,0.0435351,0.490651,-0.20122,0.905713,-0.0606955,0.877447,-0.128689,-0.348806,0.661761,-0.327891,-0.00533509,-0.148748,0.476101,0.75577,-0.886402,-0.659802,-0.127195,-0.119751,-0.00114347,-0.219498,0.615801,0.106441,0.984229,0.145121,0.947996,0.24397,0.150749,0.449413,0.204183,-0.770882,0.100094,-0.402309,-0.595037,0.894141,0.926719,0.852107,0.957828,-0.243145,-0.159754
1,0,Sender,1,0.183257,0,0.467294,-0.113565,0.081155,-0.528624,-0.0496699,-0.132845,0.368993,-0.457666,-0.582604,0.0874378,0.979549,-0.197915,-0.0964568,0.512067,0.412409,-0.444428,0.480615,-0.151509,0.286244,-0.436234,-0.0442251,0.504193,-0.436881,0.221047,0.144015,-0.712571,0.540929,-0.891515,-0.0910692,0.200988,0.889343,-0.816245,-0.648114,0.842435,0.682116,-0.51068,0.559433,-0.682261,-0.17618
1,0,Sender,2,0.0369265,0,0.759959,-0.77885,0.607526,0.69228,0.908927,-0.285846,0.74397,-0.786861,-0.402904,0.304596,0.17293,0.971283,0.70894,0.947854,0.129436,-0.703302,0.16318,0.886515,0.440669,-0.837525,-0.0128284,0.176615,-0.378382,0.824562,0.724532,-0.847616,-0.192577,0.945217,0.902949,0.230801,-0.232425,-0.0379587,-0.114648,0.0728205,0.253178,0.655336,-0.0690929,-0.252836,-0.0641091
1,0,Sender,3,0.838397,0,0.722931,0.4265,-0.341331,-0.211789,0.565065,0.602255,0.252134,0.287234,0.632716,-0.24977,0.904698,0.508161,-0.895814,0.766949,0.410231,-0.911368,0.322209,0.887135,0.710536,0.653465,-0.211662,0.399308,0.127343,-0.0618808,0.0653558,-0.00908766,0.0624777,-0.304014,0.63601,-0.516462,-0.137173,-0.514815,-0.238205,0.61485,-0.668935,-0.902622,-0.737934,0.0565452,0.436641
1,0,Sender,4,0.570535,0,0.382425,-0.12184,-0.820055,-0.156153,0.632299,0.0261889,-0.358861,-0.534539,0.290786,0.722201,-0.622356,0.643437,0.072539,-0.399877,0.124913,0.953344,-0.420804,0.194402,0.410718,0.57524,-0.738641,-0.119232,-0.601411,-0.201565,-0.744387,0.040421,-0.736888,-0.160938,0.191022,-0.0250448,0.339777,0.795562,-0.152142,0.0738612,-0.79345,0.557595,0.353249,-0.0169168,-0.405021
1,0,Sender,5,0.859332,0,0.279106,0.572646,-0.0601272,0.224852,-0.334687,-0.178627,0.739522,-0.423827,0.123464,0.346382,-0.813949,-0.223815,0.717111,0.493817,-0.8203,0.298991,-0.221175,0.805775,0.347394,0.74826,0.598483,0.630386,-0.431478,0.264272,0.67888,-0.245319,0.478039,0.436803,-0.499259,-0.596266,0.122494,0.579376,0.843345,0.683311,-0.860118,0.782742,0.0798158,0.101798,0.47224
1,0,Sender,6,0.839066,0,0.336297,0.290342,0.768408,0.81725,0.358779,0.251506,-0.458303,0.402271,0.651752,0.23135,-0.00452831,0.330722,0.175664,0.304451,-0.609839,0.170132,-0.485933,-0.555377,0.771817,-0.803959,-0.534009,-0.698486,-0.571195,-0.67056,-0.293063,0.996469,0.742426,0.617992,-0.869678,0.652449,-0.0393272,-0.729432,0.523306,0.0937846,-0.584739,-0.931146,0.34997,0.853954,0.225254
1,0,Sender,7,0.903494,0,0.963985,0.717322,-0.346362,-0.762988,0.481744,0.242433,-0.756893,0.663385,0.915215,-0.381209,-0.985778,-0.0305629,0.0764313,0.56687,0.365707,-0.105569,0.128423,0.626255,0.981787,0.810862,0.119169,-0.106157,0.524058,0.0713353,0.157826,-0.24082,0.377869,-0.665357,0.152349,0.574445,0.972902,0.944973,-0.531047,-0.999091,0.768712,0.342695,0.0499161,-0.26011,-0.540444
1,0,Sender,8,0.261943,0,0.879636,0.132053,0.401423,0.415995,-0.603791,0.588599,0.886607,0.697183,0.682375,-0.222632,0.908204,0.505707,0.519668,0.403508,-0.355312,-0.987849,0.614441,0.189737,0.237801,0.0526347,0.234645,0.734848,0.63567,0.844327,-0.973973,-0.152059,0.884423,0.8416,0.961947,0.493857,0.0119376,0.611557,-0.391481,-0.800049,-0.984665,0.072326,0.643629,0.335949,-0.887789
1,0,Sender,9,0.500934,0,0.374163,0.177849,-0.377941,-0.477904,-0.532108,0.797021,-0.670923,-0.988661,0.401234,-0.512954,0.265906,-0.192809,-0.077795,0.174332,0.587968,0.0243263,0.4347,0.697271,0.11425,0.220669,-0.165332,0.737656,0.667593,0.717788,-0.388986,0.00853655,-0.667065,0.128585,-0.891764,0.343614,-0.0807013,0.587967,0.767694,0.740942,0.00412142,0.317679,-0.405236,-0.900199,0.839804
1,0,Sender,10,0.0471176,0,-0.190486,0.0674964,0.73385,0.267415,0.990025,-0.935665,-0.0900409,-0.210577,-0.325652,-0.716464,0.330062,-0.255708,-0.288899,-0.519684,-0.315057,-0.0247572,0.70849,0.290041,-0.579482,0.500293,0.232941,0.497312,0.780153,-0.583509,0.148747,-0.756195,0.981047,0.999988,-0.183881,0.276241,-0.547784,-0.190606,-0.517117,0.863892,0.450118,-0.79847,-0.861839,0.262848,0.445936
1,0,Sender,11,0.892481,0,0.890948,-0.93245,0.264453,-0.145682,-0.729892,0.0817637,-0.962719,0.229778,0.936339,0.749589,-0.59795,0.110636,0.0588771,0.478273,0.717137,0.739583,0.06621,0.389587,0.315058,0.269753,0.169737,0.31976,0.226795,-0.828512,-0.836781,0.966718,0.30418,-0.175611,0.819902,0.00525994,-0.630276,-0.68249,0.924496,-0.228418,-0.471588,-0.170431,-0.920014,0.162144,-0.0676041
1,0,Sender,12,0.810042,0,0.633875,0.756871,-0.749675,-0.466618,-0.174958,0.902795,0.0121522,-0.67419,-0.214878,-0.262743,0.332421,0.550522,-0.505816,0.345114,-0.306283,-0.443674,-0.573302,0.226794,0.358987,0.780255,-0.513736,-0.0675243,0.307983,-0.974009,0.930183,-0.971263,-0.0634664,-0.626295,-0.400298,0.516296,-0.974128,0.5499,-0.816663,-0.939287,-0.0491365,0.821891,-0.55128,-0.696339,0.397911
1,0,Sender,13,0.743116,0,0.71545,-0.568512,-0.308527,0.0426638,-0.504884,0.936166,-0.0843145,-0.628567,-0.584026,-0.0638601,0.966185,0.807652,-0.802888,-0.612771,0.277879,0.281607,-0.0787861,-0.641615,-0.533423,-0.342059,0.90127,-0.788936,-0.54638,-0.58055,0.636365,-0.420596,0.7082,-0.541199,-0.363571,-0.386544,-0.558856,-0.785017,-0.736144,0.7842,-0.249902,-0.772393,-0.13398,-0.520449,0.297285
1,0,Sender,14,0.474006,0,0.0151901,-0.138088,-0.46903,0.187065,0.557833,0.93032,0.954267,-0.460765,-0.759394,-0.646957,0.0242489,-0.987218,0.624244,0.0320533,-0.59938,0.789662,0.464789,0.298813,-0.870147,0.0646906,-0.10713,0.0933227,0.557051,0.168399,-0.142786,0.225834,0.602999,-0.498988,-0.38272,-0.00839051,-0.0841374,-0.0185091,0.813045,-0.571544,-0.708802,0.124136,0.359908,-0.631704,0.439605
1,0,Sender,15,0.667455,0,0.425196,-0.858468,0.0481406,-0.16637,0.206146,0.201274,-0.0586995,0.4588,0.0819674,-0.974326,-0.803291,-0.77205,-0.619392,0.490857,0.870384,-0.908979,-0.479522,-0.494992,-0.562541,-0.700679,0.843172,0.563559,0.439007,0.783391,0.27951,-0.922291,-0.905284,0.443155,0.0917372,0.16983,0.364625,0.743767,0.922382,0.492128,0.55973,0.357067,0.654541,-0.899342,-0.736181
1,0,Sender,16,0.634954,0,-0.00555509,-0.387529,-0.0268251,0.801944,-0.448698,-0.710332,0.724319,0.494063,0.320716,0.818616,-0.598261,0.459122,-0.155086,-0.194277,0.857771,0.954769,0.260088,0.124699,-0.0865468,-0.366507,0.0371415,-0.389729,0.96086,0.884857,0.352066,0.901976,-0.548157,-0.330405,0.512453,0.928782,0.458787,0.821635,-0.753177,0.377494,0.832042,-0.421536,0.763288,0.120024,0.502416
1,0,Sender,17,0.770958,0,0.602754,0.710285,0.13075,0.808337,-0.501064,0.693273,0.965865,0.816354,-0.992005,0.511732,0.892509,-0.921686,0.00940414,0.121385,-0.299223,-0.149185,-0.363259,-0.0973297,-0.0702438,-0.688587,0.240351,0.771986,0.49672,0.55898,0.828843,0.814761,-0.0383909,-0.751114,0.674364,-0.421939,-0.72945,0.597179,0.693956,0.720015,0.166392,-0.640439,0.984241,0.130741,0.994015
1,0,Sender,18,0.498358,0,0.732916,0.133382,0.525936,-0.0485406,0.467866,-0.323463,0.616037,0.421498,-0.268697,0.0310811,0.914267,-0.474776,0.338022,-0.188947,-0.779866,-0.601895,0.166184,0.247666,-0.178012,0.934373,0.581985,-0.914049,-0.914572,0.256387,-0.177237,-0.807528,0.656273,0.870123,-0.384153,-0.568606,-0.149377,0.610506,0.412335,0.742828,0.522203,0.90513,-0.5704,-0.581927,-0.606303
1,0,Sender,19,0.236076,0,-0.353346,-0.714952,-0.914592,-0.955215,-0.370601,-0.754334,-0.426567,-0.998685,0.788604,-0.543651,-0.66593,-0.0374028,-0.458506,0.164002,0.154347,-0.735279,0.359122,0.808324,-0.0220322,0.323244,0.741341,0.741726,0.71737,0.766225,-0.184478,0.69145,0.443265,-0.973932,0.13038,-0.145399,-0.424371,0.844958,0.881176,0.0704158,0.798265,0.216287,0.823566,-0.642532,-0.00734641
1,0,Sender,20,0.673686,0,-0.286815,-0.343982,0.815217,-0.0770816,-0.14657,0.770681,-0.868015,-0.94901,-0.65966,0.850578,0.21517,-0.162334,0.697652,-0.0834706,0.731124,-0.739858,0.0806648,-0.0443888,0.971661,0.0417481,0.0670523,-0.803964,0.734506,-0.313853,-0.988366,0.290974,0.288535,-0.157145,0.575361,0.923989,-0.622887,0.166868,0.995373,-0.0515169,-0.458829,-0.506665,-0.919297,0.697163,0.617608
1,0,Sender,21,0.805115,0,-0.18738,-0.230497,0.611035,0.965729,0.751811,-0.501598,0.191364,-0.191763,0.0185357,-0.0560806,0.396171,-0.793782,-0.176579,-0.391423,-0.586604,0.0375886,-0.433182,0.78712,0.475487,-0.91781,-0.70986,-0.81167,0.491201,-0.213125,-0.0118434,-0.0416024,0.0498632,-0.952843,0.80457,-0.956579,-0.527047,0.149982,0.989493,-0.50414,-0.996887,-0.902592,0.602492,0.0386009,0.873584
1,0,Sender,22,0.835176,0,0.337148,-0.253429,-0.78084,-0.738963,0.178633,-0.0393174,0.613294,0.702688,0.629269,0.598951,0.133872,-0.275242,-0.227667,0.42413,0.98669,-0.866264,-0.351953,-0.899387,0.830601,0.640928,-0.988185,0.23687,-0.299677,0.605724,0.811338,-0.518856,0.880082,0.766278,0.539536,0.772336,-0.202149,0.12072,0.876758,0.798025,0.692581,0.214774,-0.455492,0.548497,0.231128
1,0,Sender,23,0.438144,0,0.554211,-0.763261,-0.769841,0.784134,0.29747,0.671183,0.959767,0.789741,-0.168221,-0.561846,-0.598797,-0.973782,0.762627,-0.0652903,-0.519516,-0.650514,-0.635122,0.491489,0.762008,0.331384,-0.63608,-0.46939,0.643121,0.44123,0.811614,0.0397256,-0.746678,0.424058,0.0588947,-0.284039,0.74441,-0.0611743,0.623765,0.18115,-0.648883,-0.292536,0.926426,0.556776,0.312834
1,0,Sender,24,0.500824,0,0.446618,0.241277,-0.441584,0.129181,-0.928847,-0.270773,-0.899182,-0.396657,-0.292488,0.551964,-0.41694,-0.364524,0.440181,0.565882,-0.820733,0.314489,0.735035,-0.302939,0.6566,-0.730666,0.10063,0.0835859,0.972918,0.843321,0.462197,-0.482632,-0.488169,-0.703355,-0.289063,0.334232,-0.725186,-0.0828752,0.417764,0.341629,-0.938635,-0.739141,0.606299,-0.786947,0.456765
1,0,Sender,25,0.56088,0,0.189665,0.983679,0.0492937,-0.61544,-0.637572,-0.289785,-0.64486,0.21579,0.921785,0.081262,-0.0957348,0.277257,-0.919255,0.505566,0.484024,0.930673,-0.337506,0.578794,-0.508076,-0.135527,0.570275,0.875563,0.0506791,-0.0126559,0.347104,-0.579601,0.896036,-0.247385,-0.827655,-0.9219,0.811043,0.596785,0.608945,0.554474,-0.891939,0.797997,0.885064,0.230603,0.00153341
1,0,Sender,26,0.273127,0,0.58357,-0.749238,0.825571,0.600239,-0.949855,-0.0426243,-0.624653,-0.0960541,0.549724,0.625394,0.39448,-0.816343,-0.8208,0.292979,-0.959059,-0.732832,-0.212146,-0.205666,-0.352122,0.598545,-0.0827172,0.504659,0.917892,0.102878,0.847939,-0.747179,0.382259,-0.880412,0.574249,0.261228,-0.776708,0.898325,-0.208414,-0.434049,0.953313,0.335741,-0.367365,0.105931,-0.76347
1,0,Sender,27,0.968398,0,0.668799,-0.474172,-0.215571,0.792596,0.0967209,-0.120161,-0.478684,-0.970516,0.0826867,0.876386,-0.591836,-0.746685,0.578082,-0.200749,0.41821,-0.353414,0.409684,-0.661785,-0.860378,0.380016,0.148406,-0.993316,0.968439,0.254129,-0.372591,-0.0757981,0.200505,0.925886,0.937996,-0.878213,0.945046,-0.0553901,-0.686948,-0.964667,0.315316,-0.577898,0.692568,-0.560073,0.746587
1,0,Sender,28,0.0153784,0,0.472936,-0.119519,-0.810276,-0.484212,-0.72949,-0.435572,0.315889,-0.365561,0.540116,0.0890328,-0.891544,-0.533158,-0.915242,-0.718411,0.046169,0.464696,-0.9933,0.346892,-0.302048,-0.0137658,0.764426,-0.657636,-0.442047,0.139089,0.303815,0.854266,-0.569804,-0.744823,0.259245,0.487669,-0.928032,0.908527,-0.886876,-0.0749537,-0.537464,0.533299,0.62387,0.789213,-0.336917
1,0,Sender,29,0.613687,0,0.847669,-0.0585713,-0.661973,0.297886,-0.634493,-0.631279,-0.0790261,0.785504,0.331173,-0.54759,0.432477,-0.544164,0.779812,0.326203,0.899505,-0.650831,-0.861028,0.608124,-0.0461273,0.474901,-0.0898662,0.292121,0.467151,-0.0334684,0.884149,-0.22405,0.549389,0.388214,-0.555109,0.658033,0.723381,0.256172,0.271673,0.308652,0.092192,0.658352,-0.50304,0.0955436,-0.583772
1,0,Sender,30,0.304202,0,0.697249,0.439432,0.921229,0.247191,0.562179,0.960413,0.810504,-0.199422,0.0450979,-0.492516,0.89055,0.864419,0.433941,-0.743623,0.264228,0.642873,0.232644,0.786562,-0.077241,-0.36516,-0.734103,0.734831,-0.829996,-0.715291,0.665479,-0.870974,-0.597352,0.0380818,0.18281,0.33005,-0.961048,0.866626,0.095348,0.388301,0.164364,-0.718751,-0.339351,-0.882574,-0.269931
1,0,Sender,31,0.724596,0,0.904068,-0.917119,0.112489,-0.0767204,-0.116452,0.684682,0.784697,0.126603,0.424041,0.431629,-0.565145,0.0901892,0.317735,-0.735649,0.125106,-0.316529,-0.783326,0.646278,0.827647,0.609207,0.803923,-0.947438,-0.702879,0.48107,-0.508519,0.100058,-0.862046,-0.936634,-0.708836,-0.156984,0.0856812,-0.492512,-0.255969,-0.959205,-0.143917,0.139823,-0.747114,0.246361,-0.0720263
1,0,Sender,32,0.262948,0,0.858544,2.8224e-05,0.636877,0.243146,0.335243,-0.330646,0.671116,0.345727,0.450191,-0.341582,0.594764,0.374858,-0.0191311,0.686382,-0.319862,-0.317776,-0.13688,0.585383,0.87164,0.60468,0.795964,-0.457829,0.355398,0.650514,-0.435949,0.98377,-0.668292,-0.199991,-0.621502,-0.832076,0.845184,0.864457,0.637173,-0.0944032,0.420853,0.411492,0.0051977,-0.760266,-0.611024
1,0,Sender,33,0.81642,0,0.640337,0.867783,-0.47922,-0.0357395,-0.743898,0.946638,0.250442,0.472505,-0.967633,0.78834,0.801368,0.483045,0.939622,-0.379537,-0.43026,-0.578893,0.378495,0.765864,0.489483,-0.137046,-0.917934,0.32677,-0.937775,-0.271018,-0.124657,0.233788,-0.611151,-0.0709848,0.0753623,0.420408,-0.877136,-0.813704,0.28438,-0.385666,0.758067,-0.926065,0.355349,-0.0624232,-0.516389
1,0,Sender,34,0.625234,0,0.140528,0.0573533,0.00801578,0.206036,0.332447,-0.963222,0.483398,-0.966577,0.0164356,0.563876,-0.886077,0.629798,0.365558,-0.282923,0.419812,0.664388,0.575515,-0.508451,-0.780958,0.130442,0.925344,0.733315,-0.552813,-0.958332,-0.255613,0.39955,0.680393,-0.475208,-0.263346,-0.202448,-0.17837,-0.790312,-0.988371,0.465832,-0.666169,-0.320806,0.0970438,-0.0778098,-0.251918
1,0,Sender,35,0.445621,0,-0.0740848,0.0243854,0.206079,0.85813,-0.624474,-0.878888,-0.387989,0.277065,0.501081,0.652148,-0.457599,-0.754663,0.817677,-0.801743,0.978568,0.28507,0.965273,-0.34626,0.374728,-0.352376,-0.146206,0.750376,0.887823,0.904943,0.418258,-0.112761,0.89602,0.244532,-0.750599,0.343113,-0.141269,0.79312,-0.52863,-0.179929,-0.491452,-0.553896,0.970082,0.857924,-0.403974
1,0,Sender,36,0.987885,0,0.495676,-0.239364,0.423149,-0.305475,0.58522,0.591924,0.818011,-0.350475,-0.742791,-0.117395,0.502782,0.36253,-0.192891,-0.80252,-0.977856,-0.467647,0.307864,-0.419108,0.845221,0.964836,-0.542352,-0.735009,0.279373,-0.972571,-0.33486,0.26531,-0.415673,0.761881,-0.0860042,0.621145,0.178462,0.109201,0.421708,-0.520163,0.774793,-0.845107,0.829921,-0.219076,0.691823
1,0,Sender,37,0.867542,0,0.514917,0.453248,-0.639049,0.904784,-0.90894,0.146634,0.283359,-0.380439,0.376108,0.56428,-0.209342,0.750365,-0.718667,0.991794,-0.881638,0.618546,0.379181,0.327449,0.631875,0.603192,-0.180334,-0.997204,-0.525206,0.425286,-0.295774,-0.334866,0.762678,-0.743867,0.859074,0.512757,-0.20781,-0.448978,0.339817,-0.475428,0.454955,-0.946805,0.193437,-0.564681,0.373576
1,0,Sender,38,0.201369,0,0.656301,0.989014,-0.7109,0.451801,-0.816141,-0.257583,-0.256983,-0.698968,-0.340394,0.864001,0.0145158,-0.481383,0.680828,-0.0552694,-0.520064,0.368149,0.445719,0.490528,0.380831,-0.652148,-0.492538,0.0977401,-0.0986122,0.553652,-0.88193,0.849367,-0.431213,-0.67728,-0.0129694,0.322028,0.542277,-0.382854,0.358312,-0.730019,-0.615718,0.0313225,0.991215,-0.441264,0.879113
1,0,Sender,39,0.0225727,0,0.611615,-0.497417,0.738286,-0.391925,-0.454979,-0.426337,-0.171307,0.103967,-0.0914824,-0.796762,-0.350839,0.219644,0.988853,0.505445,-0.231596,0.94866,0.816049,-0.776334,-0.260924,0.704931,0.433471,0.914677,-0.232158,0.45505,0.138165,0.748993,-0.225157,0.738359,0.901112,0.892374,-0.614044,-0.468963,-0.24563,0.696896,-0.256282,0.45203,-0.567719,-0.324125,0.267746
1,0,Sender,40,0.693075,0,-0.135779,-0.939052,0.220751,-0.0602273,-0.345732,0.127445,-0.972464,0.459453,0.562759,0.0209783,0.305456,-0.246521,0.435204,-0.369223,-0.242522,-0.579761,0.803947,-0.415638,-0.207749,0.90292,0.453877,0.392838,-0.316408,0.794156,0.476227,0.573684,0.10927,-0.0958186,0.892246,0.839312,0.185864,0.0791891,-0.451921,-0.304008,-0.874746,-0.513457,0.97617,-0.21457,-0.161845
1,0,Sender,41,0.166506,0,0.438692,-0.0385459,0.731375,-0.886125,-0.639883,-0.158916,-0.774214,-0.822369,-0.868004,-0.612728,0.29618,-0.358706,-0.162298,-0.340797,-0.231526,0.663616,0.536325,0.461578,0.792233,-0.22738,-0.500638,-0.107203,0.0305171,0.129802,-0.476546,-0.753356,0.329748,-0.652282,0.618221,0.574566,0.937522,0.702631,-0.362641,-0.1145,0.0559163,0.181469,0.0795261,-0.0823574,0.39057
1,0,Sender,42,0.928926,0,0.963541,0.00452075,-0.925948,0.849995,0.425874,-0.00678673,-0.366447,-0.602953,-0.480832,-0.746555,-0.122207,-0.181822,-0.24909,-0.552241,-0.329643,0.496143,0.0825639,0.307786,-0.87212,0.284656,0.318185,-0.676621,-0.0966132,0.0182035,0.359707,-0.442544,0.846855,-0.981052,-0.0421587,-0.304102,0.15565,-0.669908,0.870285,0.955873,0.682102,0.173055,0.0906854,0.0878207,-0.387964
1,0,Sender,43,0.0707944,0,0.584461,0.440005,0.780837,0.735519,-0.260965,0.406852,-0.249657,-0.614861,-0.146577,-0.748969,-0.542092,-0.300313,0.453149,0.0400547,-0.0409718,-0.0543227,0.123301,0.386736,-0.300232,-0.142009,-0.169782,0.812964,-0.987335,-0.49803,-0.486656,-0.129065,0.617937,-0.522247,0.973027,0.565501,-0.458285,-0.331888,0.962335,-0.337491,0.209561,0.792344,-0.0690748,0.094838,-0.168082
1,0,Sender,44,0.270313,0,-0.119984,0.396889,-0.330021,-0.954471,0.238138,-0.0250613,0.475838,0.370809,0.28152,-0.200162,0.849339,0.664487,0.856622,-0.661536,0.0491584,0.347983,-0.802217,0.595199,-0.821194,0.50927,0.320247,-0.717528,0.18667,0.707057,0.582303,-0.224554,-0.0484063,0.758322,0.269075,-0.881769,-0.514687,-0.26601,-0.646361,-0.909105,-0.0180314,-0.0439474,0.433396,0.396289,0.15263
1,0,Sender,45,0.721409,0,0.702066,0.106084,-0.504844,0.0252224,0.860371,0.920842,0.355317,0.546787,0.280373,0.176904,0.476505,0.116438,-0.168802,-0.260112,-0.368398,-0.350563,-0.74461,-0.391556,-0.326945,-0.272819,0.433653,-0.535447,-0.297744,0.0181723,-0.250552,0.494816,-0.046139,0.936541,0.317499,0.565973,-0.590621,-0.939264,0.99943,-0.276148,0.669101,-0.237329,-0.460558,-0.329681,-0.572079
1,0,Sender,46,0.606652,0,0.554466,-0.220086,-0.361625,0.765467,0.853857,-0.462821,-0.645222,0.0452806,-0.532041,-0.677903,0.0431744,0.476862,0.414196,0.375004,-0.377628,0.19288,0.4155,0.92411,-0.395192,0.841827,-0.398303,0.190803,0.697761,0.370942,-0.820543,-0.0656842,-0.435983,-0.99292,-0.355082,0.371936,0.0495848,0.235946,-0.36501,-0.59535,0.0391721,0.443027,0.591139,0.208678,-0.277086
1,0,Sender,47,0.302551,0,0.425519,0.271972,0.14553,0.409393,-0.596066,0.588425,-0.330618,0.697914,-0.749061,-0.596341,-0.245056,0.624949,-0.507699,-0.524003,0.319723,-0.824409,0.877624,0.196396,0.132835,0.202446,-0.204578,0.698383,0.304725,0.780386,-0.341401,0.860042,-0.729434,-0.354511,-0.406844,-0.553203,-0.337571,-0.762973,0.559082,-0.820229,-0.445136,-0.708177,0.361975,0.67155,-0.527815
1,0,Sender,48,0.784377,0,-0.307174,0.191594,0.54665,-0.291553,-0.31175,-0.565089,0.754396,0.812687,0.742872,0.00321733,-0.507211,-0.31317,0.832851,-0.731667,-0.165774,0.301821,-0.7914,0.858083,-0.00745557,0.646932,-0.13344,-0.318523,0.706018,-0.916362,-0.693678,0.445675,-0.127936,0.457575,0.316706,0.964892,-0.847051,0.247482,0.322348,0.219761,-0.208943,0.723768,0.0698438,-0.277685,-0.988854
1,0,Sender,49,0.397923,0,0.804369,0.710248,0.0046582,0.0306759,0.940234,0.857229,-0.939226,-0.541895,-0.627741,-0.107545,0.62191,0.0898319,-0.893311,0.958236,0.944416,-0.977793,0.524893,0.900801,0.205576,0.848675,0.555309,-0.0499602,-0.583893,-0.589034,0.033169,0.47029,-0.517059,0.91017,-0.71783,0.010639,0.294187,0.180501,-0.38186,0.856943,-0.643148,-0.171605,-0.924226,0.0152232,0.252515
1,0,Sender,50,0.544901,0,0.566396,-0.51566,-0.763125,-0.971501,0.233837,0.820818,-0.00855554,-0.81318,-0.707963,0.115329,-0.869473,-0.00173725,0.000707468,0.0730812,0.679178,0.217809,-0.80728,-0.450519,0.308674,-0.456778,0.261229,-0.338144,0.740406,0.612571,0.905528,-0.281433,-0.268553,-0.659625,-0.573257,-0.350937,0.0539037,-0.458956,-0.0910333,-0.913912,-0.313805,-0.155183,-0.577234,0.938321,-0.0727225
1,0,Sender,51,0.830157,0,0.431933,0.678456,0.0084861,-0.78641,-0.613209,0.880398,-0.648459,-0.0559765,-0.175947,0.879518,-0.275006,-0.0943546,-0.0387565,-0.228621,0.305598,0.106753,-0.117698,-0.191394,-0.0901035,-0.0462104,0.0890141,-0.0861274,0.619362,0.586448,-0.315298,0.15893,-0.733846,-0.84574,-0.492447,-0.445046,0.425151,0.626295,-0.169647,-0.347156,-0.929134,-0.9533,-0.408867,-0.479358,0.695574
1,0,Sender,52,0.320271,0,0.702858,-0.606649,-0.263621,0.328436,0.951948,-0.440326,0.301375,-0.073772,0.324361,-0.244606,-0.315148,-0.974589,-0.836213,0.938624,0.986005,-0.344452,-0.337606,0.676502,0.838139,-0.240957,0.742879,0.116086,0.628789,-0.891905,0.421959,-0.787364,0.186426,0.415016,-0.536469,-0.437414,-0.679135,0.121251,-0.71618,-0.0782546,0.117487,-0.86695,0.228604,0.00770302,-0.097068
1,0,Sender,53,0.440061,0,0.850954,0.427231,0.0274072,0.165467,0.482417,0.216671,0.204614,0.311467,0.319002,0.19162,-0.833648,-0.864161,0.438315,-0.996729,0.969526,-0.966763,-0.318291,0.651704,-0.997666,0.324667,-0.492246,0.215143,-0.704522,-0.981457,0.817517,0.592529,-0.453925,-0.534453,-0.30024,-0.588837,0.190539,0.0740607,0.945816,-0.2525,0.0760998,0.603153,-0.482603,0.483888,0.206532
1,0,Sender,54,0.188886,0,-0.679168,0.446551,-0.141657,-0.1062,0.476227,0.795405,-0.643565,0.347283,0.241043,0.602844,0.904611,0.675575,-0.530374,-0.397915,0.944165,0.684366,-0.102557,0.460802,-0.0278031,-0.337691,-0.763753,0.723277,-0.64487,-0.75056,-0.390591,-0.762145,-0.568289,-0.655704,-0.874944,0.697041,0.566463,-0.709616,-0.0310152,-0.266506,0.566349,0.458966,0.774161,0.820515,-0.0883041
1,0,Sender,55,0.491001,0,0.628249,-0.197561,0.429652,0.464941,-0.490673,-0.224598,-0.429508,-0.204821,0.476539,-0.0441344,-0.879246,-0.579391,0.581319,0.82806,-0.0955584,-0.470106,-0.595288,-0.513021,-0.715815,-0.788061,-0.192421,-0.888623,0.737152,-0.370518,-0.263843,0.908097,0.177422,-0.468857,0.693265,0.369951,-0.974453,-0.588174,-0.832166,-0.886241,0.485967,-0.656809,-0.334997,-0.9405,0.780081
1,0,Sender,56,0.305301,0,0.568378,-0.0545637,0.268763,0.416855,-0.071728,0.342375,-0.257635,-0.790557,-0.95859,-0.842897,-0.944668,-0.601729,0.0503822,0.435066,-0.931391,0.573319,0.50908,0.15794,0.0894724,0.878812,0.2446,-0.658205,-0.376415,-0.831656,0.781878,0.887152,0.319033,0.0790307,0.287948,-0.41729,-0.293282,0.848029,-0.502115,0.0249903,-0.147001,-0.0948252,-0.492006,0.834945,-0.430269
1,0,Sender,57,0.302868,0,0.0928252,-0.884958,-0.084063,-0.222969,0.487213,-0.103243,-0.086706,0.97146,0.0380289,0.326914,0.38228,-0.697839,0.729474,0.62306,-0.82627,-0.802162,-0.859089,0.132064,0.39505,0.256852,-0.881525,-0.758182,-0.409609,0.613356,-0.21268,-0.00975179,-0.709425,-0.625965,0.416958,0.477963,-0.361678,-0.377655,0.602895,-0.157287,0.0855125,-0.103877,-0.221575,0.362526,0.290902
1,0,Sender,58,0.656309,0,0.721285,-0.449381,-0.778295,-0.640924,-0.367543,-0.737298,0.715125,0.554051,0.267148,-0.49898,-0.29106,-0.0540539,0.149908,-0.546099,-0.403597,-0.386372,-0.57324,0.661213,0.874957,0.61159,-0.0158292,0.568344,-0.0243092,-0.316381,0.0334788,0.139195,0.919511,-0.915656,0.124679,0.410623,0.23952,-0.579499,-0.486832,0.552608,0.29958,-0.0447995,-0.359046,0.0540966,0.38516
1,0,Sender,59,0.578828,0,0.727129,-0.393932,0.269965,-0.665937,-0.847406,0.421636,-0.504078,-0.27124,0.813988,-0.896338,-0.449229,0.0488975,0.035972,0.401483,0.914038,-0.54283,-0.018407,-0.265393,0.815885,0.851168,0.367898,-0.834941,0.184526,-0.242277,-0.0965913,0.56045,0.975798,0.436234,-0.747441,0.417783,0.090517,0.0267562,0.866922,0.575178,-0.490878,0.452173,0.345053,0.832872,-0.10809
1,0,Sender,60,0.386452,0,0.517246,0.177623,-0.696244,-0.241531,0.6633,-0.10975,-0.285053,-0.735405,-0.482942,0.42676,-0.105772,-0.470581,0.974795,-0.881411,0.494783,-0.718587,0.898825,0.295597,-0.144874,-0.864161,-0.0457935,-0.344727,0.414999,-0.946017,-0.368774,0.397586,-0.0331926,-0.174637,-0.698624,0.617451,-0.568727,0.447253,0.0724044,0.396379,-0.229934,-0.847057,0.415395,0.265997,-0.988597
1,0,Sender,61,0.0524748,0,0.212855,-0.111361,-0.569127,-0.0255256,0.09967,0.368952,-0.636189,0.969154,0.530263,-0.7689,0.787417,0.652265,-0.751491,-0.2018,0.340018,0.853053,0.209364,0.133848,-0.366726,0.628941,-0.470619,0.315607,-0.595318,0.0155473,-0.809925,-0.254153,0.307509,-0.293941,0.430547,-0.892172,0.204538,0.447483,-0.615421,-0.123793,-0.896746,-0.271362,-0.265122,0.701727,0.501784
1,0,Sender,62,0.294791,0,0.638027,0.430773,0.00996522,0.00231861,-0.755269,-0.225578,-0.265905,-0.627011,0.716461,-0.752612,0.0033009,0.316552,0.708706,-0.999897,-0.23866,-0.701126,0.919283,-0.203868,-0.907619,-0.429373,0.689614,-0.408298,-0.741687,-0.440126,0.611964,0.579926,0.603461,0.23341,-0.00233036,-0.206202,-0.43455,-0.512285,-0.487525,-0.887611,0.838712,-0.326794,0.28817,-0.949341,0.43656
1,0,Sender,63,0.215325,0,-0.0725093,-0.386199,0.520611,0.46654,0.648435,-0.314224,0.402304,0.992305,0.214786,-0.320785,0.745646,-0.61366,0.836322,0.469743,0.078307,-0.0148443,-0.797396,0.824103,0.728499,-0.960392,0.487622,-0.307885,-0.423063,0.726775,-0.26426,0.630813,-0.510856,-0.239688,-0.267664,0.132408,-0.789935,0.958175,-0.58785,-0.668881,-0.791657,0.332299,0.806935,0.167224,0.293317
1,0,Sender,64,0.719651,0,0.450219,0.803209,-0.836434,-0.378862,0.0402245,0.424248,-0.0356176,0.27684,0.332554,-0.143884,-0.0784328,0.342889,0.810262,0.110078,-0.877172,-0.93773,-0.0438816,0.0351108,-0.896159,-0.0838521,-0.492516,-0.808149,0.309265,-0.492425,0.216757,-0.723873,-0.522564,0.402027,-0.75897,0.632521,-0.836693,-0.990109,0.248477,0.648933,-0.535816,-0.515431,-0.577264,0.110157,-0.423471
1,0,Sender,65,0.589849,0,0.929262,0.896653,0.0478803,-0.319221,-0.19479,-0.218822,-0.557169,0.427857,-0.27204,-0.294918,0.927048,0.496127,-0.617523,-0.00771762,-0.138741,-0.156778,-0.097282,0.448436,-0.388467,0.053603,-0.45637,-0.436532,0.426455,-0.0829821,0.609375,0.902525,-0.491245,-0.110983,0.431787,-0.960607,0.828111,-0.489163,-0.176086,0.519614,0.115992,0.956483,-0.500928,0.677548,-0.538691
1,0,Sender,66,0.730412,0,-0.134431,0.463441,0.760435,-0.174133,-0.915769,-0.461744,0.0940264,-0.0636586,0.413161,0.103756,-0.129494,0.768573,-0.555184,0.85242,0.804977,-0.615928,-0.29654,0.988874,-0.662458,-0.0478285,-0.155714,0.78147,-0.00292389,0.622862,0.197603,0.925923,-0.520622,0.110466,0.158034,0.821714,0.0751491,-0.888125,0.791148,0.199407,0.0409135,-0.213677,-0.202518,0.361054,-0.204591
1,0,Sender,67,0.513363,0,0.278832,0.827942,-0.41747,0.700512,-0.0277965,-0.440977,0.593796,0.093151,-0.319269,-0.225545,0.788113,-0.130299,0.769022,-0.742529,0.119542,-0.123077,-0.574754,-0.222011,0.604998,-0.976753,-0.941531,-0.183481,-0.0384569,0.182707,-0.770818,0.767685,-0.762005,0.736185,0.141507,0.963443,-0.677987,-0.780588,-0.545014,0.246944,-0.118003,0.157723,-0.424582,-0.172032,0.689813
1,0,Sender,68,0.450697,0,0.799144,-0.123445,0.613967,-0.156095,0.842616,-0.094147,-0.223471,-0.797329,-0.533015,0.167825,-0.228622,-0.285181,0.970953,0.844949,0.785699,0.157023,0.878625,-0.389677,-0.505566,-0.855521,0.854569,0.710645,0.0680873,-0.862171,0.758215,-0.195096,-0.634596,0.680705,-0.465398,0.77855,0.334062,0.681716,0.928955,0.594179,-0.76454,0.0416828,0.209207,0.67283,-0.422234
1,0,Sender,69,0.410168,0,0.442557,0.85517,-0.255425,-0.95854,0.445868,-0.624911,0.317538,0.960334,0.69633,0.395938,0.781303,-0.791027,0.100924,-0.269919,0.405837,0.516585,0.534789,0.645841,0.835885,-0.475973,0.377149,0.591851,-0.639753,0.438093,-0.207859,0.871805,0.0113996,-0.20273,-0.994401,0.324844,-0.912594,-0.0588572,0.549833,0.756609,-0.600163,-0.729516,0.858202,-0.410831,-0.790855
1,0,Sender,70,0.502997,0,0.65953,-0.336913,-0.0963049,-0.336854,-0.651252,-0.761562,0.663576,-0.0717513,-0.2777,0.438249,0.406249,-0.0241412,0.308372,0.324273,-0.393072,-0.414314,0.371027,0.930397,0.921794,-0.881131,0.679744,0.0535131,0.170501,0.0129098,0.996433,0.677145,-0.817527,-0.952459,-0.00970143,-0.476091,0.882001,0.22545,-0.449284,-0.541297,0.269988,-0.838216,0.56222,0.551973,0.0820034
1,0,Sender,71,0.180582,0,-0.0958067,-0.684947,-0.90552,0.651809,0.85314,0.127098,-0.565196,-0.17962,-0.20812,-0.47374,0.401438,0.519047,0.290734,0.0996633,-0.50743,-0.566903,-0.566558,0.845492,0.967795,-0.982974,0.941797,0.239303,0.0821218,0.325467,0.407452,-0.285048,-0.656572,-0.0387073,0.951034,0.51143,-0.489416,0.0695919,0.986575,-0.604715,0.976094,-0.392369,0.888526,-0.439303,-0.0944907
1,0,Sender,72,0.9449,0,0.999416,-0.967913,-0.911824,0.193733,0.092389,-0.0711645,0.112075,-0.213986,0.85837,-0.0328249,-0.887945,-0.0278465,-0.816453,0.0363487,0.472091,0.870765,-0.561091,-0.462461,0.287423,0.660888,-0.311415,-0.175694,0.997704,-0.445321,0.882023,-0.972357,-0.0584829,-0.583703,-0.37286,-0.533336,-0.790628,-0.420544,0.109891,-0.148461,-0.243274,0.379624,-0.668522,0.412071,-0.339956
1,0,Sender,73,0.0684873,0,0.533971,-0.73116,0.960926,-0.96782,0.566225,0.0224349,-0.700878,-0.739374,-0.557104,0.944611,-0.292521,-0.527078,-0.054371,0.710101,-0.820153,0.742922,-0.575949,0.617792,0.014867,-0.4661,-0.427692,0.687957,-0.214368,-0.41288,-0.0564322,0.627635,0.702621,0.39611,-0.0980698,-0.335323,-0.546668,-0.993745,0.32916,0.652825,-0.133447,-0.636784,0.852271,0.341274,-0.872902
1,0,Sender,74,0.154899,0,0.471512,0.635901,-0.286253,0.827993,0.62142,-0.510205,0.216452,-0.536356,0.421469,-0.0174679,0.939653,0.867734,0.0905626,-0.588512,0.850759,-0.973255,-0.943553,0.0457062,-0.569004,-0.818537,-0.52893,-0.912015,-0.531889,-0.769567,-0.510952,-0.444028,-0.119743,0.847085,-0.572093,-0.0804038,0.134678,0.577476,-0.803689,0.305787,-0.431892,-0.867613,0.184054,0.40232,0.142092
1,0,Sender,75,0.46769,0,0.213079,-0.767846,-0.726418,0.678446,-0.994712,-0.993399,0.560656,0.259738,0.440936,-0.800472,-0.824703,0.530177,0.820562,-0.47284,0.15982,-0.385256,0.443253,-0.0695371,0.215606,0.688162,0.488178,-0.116207,0.930489,-0.418914,0.279428,-0.312181,0.201036,0.0582357,0.328884,0.0254252,0.356334,-0.194804,0.394718,0.204171,0.644712,-0.876563,0.838073,-0.271163,0.437482
1,0,Sender,76,0.838473,0,-0.684441,0.676448,-0.36961,0.206882,0.886897,0.539371,0.465529,0.421062,-0.878014,-0.840275,-0.128791,-0.160383,-0.856915,0.980632,-0.0505667,-0.971367,0.260528,-0.320411,-0.270773,0.165633,-0.157096,0.895593,-0.391992,0.913963,-0.11177,0.206837,-0.225376,0.900604,0.529187,-0.549688,0.287858,0.685682,-0.290679,0.548214,0.472966,0.923422,-0.31401,0.564693,-0.622879
1,0,Sender,77,0.308972,0,0.303318,0.195916,0.460922,0.0970383,0.508522,-0.95466,-0.944502,-0.644896,-0.666182,-0.732478,0.779302,0.239666,-0.855289,0.359939,-0.722397,-0.440669,-0.091404,0.537569,-0.27033,0.246989,0.43302,0.576933,-0.64069,0.88689,-0.394005,-0.848271,0.095024,-0.603125,-0.0261337,-0.841047,-0.206207,0.2821,0.0805616,-0.97984,-0.619062,0.392385,0.743619,-0.627344,0.813929
1,0,Sender,78,0.902369,0,0.529091,0.612777,0.936653,-0.0114329,0.670861,-0.565128,-0.213727,-0.26418,-0.181187,0.68439,0.236363,0.808545,0.509355,-0.340286,0.017988,0.772831,0.472214,0.679668,0.883535,0.0773463,-0.414789,-0.636468,0.813035,0.857939,0.517835,-0.546089,-0.236547,-0.0701339,0.552613,-0.885538,-0.272694,0.374252,-0.162299,-0.402296,-0.390135,-0.138799,0.635158,-0.589185,0.31909
1,0,Sender,79,0.598823,0,0.941509,-0.136355,-0.514003,-0.29189,0.441184,-0.820553,0.851538,-0.840654,-0.449588,-0.587325,0.212964,-0.810727,0.0141922,0.752729,-0.303449,-0.0488692,0.095431,-0.157869,-0.457224,-0.498808,-0.996322,-0.306502,-0.767603,-0.742624,-0.749274,-0.900183,-0.862887,0.676713,-0.141743,-0.907004,0.145671,0.521489,-0.0681383,-0.157951,-0.691958,0.105458,-0.832336,-0.728338,-0.277849
1,0,Sender,80,0.0600941,0,-0.011018,0.206212,0.386823,0.683006,0.214974,-0.468102,-0.240781,-0.0771187,-0.655983,0.0243676,-0.163492,0.963973,-0.205923,-0.478945,-0.905462,0.969859,-0.786204,-0.875063,0.44013,0.915004,0.0725214,-0.154332,-0.309192,0.95557,-0.474974,-0.445913,0.87006,-0.883201,-0.385775,-0.142228,-0.194849,-0.237636,0.0776215,-0.475828,-0.498804,0.875052,0.970585,-0.543908,-0.897357
1,0,Sender,81,0.389165,0,0.603117,-0.832857,0.132939,0.17212,-0.983727,0.271303,-0.65134,-0.116296,0.0918336,0.599708,-0.577075,0.157786,-0.81311,-0.159986,0.583766,0.70962,0.81255,0.163313,-0.403549,-0.919995,0.0576793,0.722792,0.215683,0.200795,-0.303685,-0.620058,-0.467297,0.562949,-0.241389,-0.140333,0.329745,0.637756,-0.87574,-0.382021,-0.754165,-0.605993,-0.356275,0.473566,0.745201
1,0,Sender,82,0.669843,0,0.5335,0.612638,-0.367132,0.00782278,-0.841033,-0.462828,0.715759,-0.92532,-0.829143,-0.98247,0.3601,0.046996,0.162711,0.00127228,0.887076,0.597191,0.19409,-0.214896,-0.743175,0.814682,0.747523,0.219729,0.945875,-0.972863,0.970848,-0.0612871,0.171477,-0.880802,-0.563811,0.673038,0.307029,-0.0885386,0.947664,0.489463,-0.0207572,0.0455639,0.00596291,0.393158,-0.939537
1,0,Sender,83,0.600548,0,0.551575,0.47453,-0.0364706,0.408822,0.690097,0.170274,0.964126,-0.626352,0.0552391,-0.80541,0.546278,-0.413646,0.88017,-0.72521,0.976291,-0.00320426,-0.016303,-0.129528,0.0377537,0.391081,-0.612794,0.599245,-0.97689,0.648142,0.0493534,-0.786378,-0.27716,0.0883109,-0.976804,0.49812,0.90652,-0.119889,0.172049,-0.892252,-0.412828,-0.100437,-0.861717,-0.0693287,-0.465729
1,0,Sender,84,0.0338413,0,-0.278669,0.190951,0.674601,0.0140526,-0.114557,-0.891512,0.280743,-0.644511,0.789567,-0.233044,-0.329034,-0.787301,-0.915565,-0.0862126,0.988666,0.650322,0.428707,-0.620491,0.629345,0.288136,0.95998,-0.0164027,0.580857,0.517898,0.836716,-0.573312,0.336021,0.346875,-0.144779,0.743144,0.385307,-0.814961,0.361687,0.413009,0.784822,-0.0725008,0.07383,-0.452883,0.968344
1,0,Sender,85,0.182791,0,-0.206694,0.437196,0.313478,0.162567,-0.307835,-0.687038,-0.500084,-0.773196,-0.628087,-0.176753,0.552952,0.135616,0.899825,0.0952841,-0.4885,-0.152744,0.943334,0.689612,-0.829471,0.638839,0.240514,0.255531,0.429842,-0.653033,-0.499219,0.170281,0.44067,-0.132068,0.70561,-0.878886,-0.547522,0.00497679,-0.813113,-0.068209,0.412065,0.503196,0.819177,0.316206,0.816738
1,0,Sender,86,0.148202,0,0.896306,0.025594,0.75067,0.237522,-0.331462,-0.970023,0.860278,-0.859197,0.265302,-0.0600734,-0.739071,0.251748,0.979883,-0.532057,-0.61066,0.481441,-0.989717,-0.798021,0.824315,0.193437,0.500822,-0.570397,0.249657,-0.428057,-0.0948542,-0.925399,0.330019,-0.28721,0.964588,-0.199073,-0.968274,0.237551,0.101931,-0.465096,0.717219,-0.213182,-0.155093,-0.293944,-0.891402
1,0,Sender,87,0.46535,0,0.868374,-0.405383,-0.0895624,0.438937,-0.0964792,-0.243206,-0.839542,-0.0154941,-0.782314,-0.00629104,-0.495573,-0.875923,0.0696669,-0.117284,-0.489564,0.235583,-0.790587,0.828361,0.266408,0.988506,0.646508,-0.93056,0.38076,0.55732,0.486922,0.941455,-0.881204,0.100171,-0.780566,0.727025,-0.0942745,0.251595,0.917266,0.278952,-0.885617,-0.849769,0.803278,-0.7934,-0.563363
1,0,Sender,88,0.776316,0,0.639774,-0.450839,-0.110427,0.572726,-0.704961,-0.3897,0.826748,-0.114953,-0.661646,0.823599,-0.813177,-0.962027,0.749075,0.716785,0.362187,0.38774,0.0968061,-0.124913,0.570555,0.867643,0.675391,-0.625672,-0.900573,-0.949333,-0.0587426,0.367175,0.809778,-0.803142,0.0968699,-0.395635,-0.692171,0.0278439,0.57252,-0.221385,-0.702269,-0.293614,-0.894654,-0.919728,0.731056
1,0,Sender,89,0.257224,0,-0.65986,-0.937676,-0.562984,0.748808,-0.198459,0.796709,0.0125847,-0.00575484,-0.574055,0.329885,0.507295,-0.899916,-0.705589,0.91619,0.510676,-0.814816,0.620055,0.889217,-0.190027,-0.332992,-0.508853,-0.912459,-0.360243,-0.686619,-0.158172,-0.783719,-0.695739,-0.908376,0.804597,0.948597,-0.306121,0.151607,0.73823,0.58939,0.181192,-0.0832227,0.0834152,0.905971,-0.310249
1,0,Sender,90,0.41231,0,0.774164,0.062884,-0.474563,-0.0715999,-0.0843913,0.799553,-0.56301,-0.35638,-0.606782,0.839131,-0.989575,0.563762,-0.0556461,-0.904486,0.396217,-0.0460615,0.349075,0.962756,0.570863,-0.989416,-0.784277,-0.30077,-0.0249276,-0.97132,-0.93582,0.895139,-0.50589,-0.861024,-0.477584,-0.527609,0.372964,-0.032526,0.749107,-0.959679,0.99974,0.622988,-0.974223,-0.895806,-0.526276
1,0,Sender,91,0.355515,0,0.906352,-0.659495,-0.452349,0.662257,0.617871,0.205493,-0.00636872,0.107533,0.19177,0.860285,0.312919,0.172149,0.157562,-0.179209,-0.817291,0.0395877,0.232758,-0.150913,-0.207483,-0.931775,0.488191,0.469576,-0.459921,0.993691,-0.5899,-0.690653,0.199297,0.901879,-0.0755088,-0.687099,-0.333651,0.0908694,0.98173,0.294365,0.142412,0.619602,0.46845,-0.878573,-0.16415
1,0,Sender,92,0.579826,0,0.329737,0.326814,0.248883,-0.0265582,0.103637,0.228023,-0.2393,-0.515866,-0.452283,-0.942985,0.03638,0.968361,-0.832767,0.751251,-0.460734,0.0826601,-0.0929161,-0.235857,0.390103,0.500573,0.957254,0.490838,0.690565,0.201662,0.464619,0.463661,-0.532316,-0.0361582,0.797074,-0.951601,-0.62166,0.717166,-0.0277246,-0.432726,-0.035918,0.980378,-0.0700303,0.128894,0.122423
1,0,Sender,93,0.890598,0,0.937902,-0.962682,0.267594,0.905014,0.926947,-0.865061,-0.540225,-0.768295,0.0534567,0.0567812,-0.323189,0.94007,0.0374714,-0.763789,-0.653565,-0.707834,0.662662,-0.707834,-6.32133e-05,-0.123203,-0.296758,-0.490585,-0.20645,0.374069,-0.253092,-0.129432,-0.271545,0.97892,-0.766901,-0.70893,0.176277,-0.0546285,0.154787,0.0779947,-0.621689,0.739729,0.532037,0.0329426,-0.359212
1,0,Sender,94,0.0772157,0,0.933528,-0.8962,-0.299912,-0.651838,-0.674546,-0.314561,0.932828,0.673211,-0.457666,-0.0501966,0.207218,0.573589,-0.669893,-0.431005,-0.361557,-0.704263,-0.840056,-0.658717,-0.04416,0.643882,-0.140835,-0.0296842,-0.275813,-0.213089,-0.584263,-0.880733,0.708764,0.592177,-0.961639,0.491488,0.704324,0.131832,0.2471,0.762998,0.138134,-0.00409648,0.846254,-0.293698,0.354218
1,0,Sender,95,0.81035,0,0.149639,0.131373,-0.385257,0.00850525,0.0474381,-0.919784,0.482139,0.268699,0.515905,0.225273,0.484703,0.996944,0.455062,0.51405,-0.134688,-0.145739,-0.581913,-0.969968,0.76585,-0.506712,-0.305407,-0.919607,-0.486945,-0.654498,-0.945783,-0.323363,-0.997563,0.423281,0.39126,-0.16227,-0.275772,-0.798768,0.252798,0.235502,-0.365724,-0.294594,-0.632013,0.527771,0.0826145
1,0,Sender,96,0.524685,0,-0.977039,0.270964,-0.908292,0.322366,0.811742,-0.251155,-0.925189,-0.25403,-0.414245,0.540562,0.0824288,-0.17067,-0.959799,-0.0370122,-0.352602,0.571464,0.126533,0.712901,0.67041,-0.117462,0.170586,-0.20418,0.226277,0.149508,-0.354775,0.671971,0.535882,0.842433,-0.448015,-0.867906,0.883342,-0.773026,0.89638,0.6128,-0.497138,-0.947813,0.0428305,0.866364,0.675791
1,0,Sender,97,0.316002,0,0.943086,-0.586227,0.579793,0.301182,-0.113021,0.385561,-0.16787,-0.708162,-0.428805,-0.524229,0.166147,-0.723959,-0.274194,0.598082,-0.640315,0.232584,-0.827723,-0.292135,0.655149,-0.593198,0.706918,-0.648158,-0.292796,0.352029,-0.340358,0.520248,-0.475804,-0.334685,-0.88552,-0.548831,0.198923,0.57095,0.316331,0.199216,-0.338236,-0.00159381,0.11174,-0.0921819,-0.446821
1,0,Sender,98,0.327407,0,0.246826,0.311775,0.369162,-0.852557,-0.902179,0.0475022,-0.267833,0.409493,0.804411,-0.268137,-0.554702,0.33283,0.395929,-0.560733,-0.153942,-0.108068,-0.726337,0.923253,0.645258,-0.753586,0.928609,0.242438,0.577195,-0.831556,-0.520347,0.578018,0.456422,0.792178,0.582262,-0.830191,-0.461561,-0.563054,0.581712,0.975633,0.921782,-0.229739,0.0919064,0.852954,-0.328562
1,0,Sender,99,0.349191,0,0.497691,0.438225,0.428064,0.782172,0.667782,-0.993403,0.140545,0.333454,-0.498802,-0.932441,-0.758751,-0.712345,0.570443,-0.00237465,-0.923703,-0.227496,-0.655068,0.193359,-0.443244,0.419394,0.00378355,-0.0814156,0.983943,0.00714053,0.251727,-0.861412,0.794768,-0.557027,0.0457708,0.663653,0.000380099,0.640336,-0.619267,-0.0314454,-0.922803,-0.380838,-0.750385,0.727223,-0.509289
1,0,Sender,100,0.394609,0,0.276964,-0.0927771,-0.516782,0.581865,0.666753,-0.103986,0.418358,0.0699972,-0.310288,0.289505,-0.58233,-0.412854,0.458665,0.716624,-0.0506604,-0.897365,-0.838026,-0.425435,-0.160984,-0.820462,-0.284466,0.221186,-0.446907,-0.576958,-0.117337,0.595293,-0.483034,0.676252,-0.279545,-0.192538,-0.93357,-0.971637,0.724286,0.245602,-0.894678,-0.798187,0.223524,0.350173,-0.473719
1,0,Sender,101,0.366396,0,-0.739971,0.749497,-0.30016,0.708646,-0.623566,0.118677,0.241878,-0.158656,0.878199,-0.298848,-0.124437,-0.852192,-0.122495,-0.384057,-0.369833,0.23399,-0.495882,0.109202,-0.562838,0.254425,0.543737,0.437705,0.32982,-0.852552,0.128169,0.781592,0.190362,0.729331,-0.146193,0.699147,0.0392294,-0.77984,-0.840927,0.888229,-0.542758,-0.348306,0.765433,0.646749,-0.0080788
1,0,Sender,102,0.721333,0,0.875999,-0.535137,-0.676449,-0.500574,-0.789399,0.51583,0.321312,-0.486923,-0.6603,-0.162423,0.165865,-0.151289,-0.660035,0.77578,0.422663,0.117202,0.51096,0.184337,0.347794,0.567697,0.583618,0.438424,0.826239,-0.57161,-0.998266,0.860495,-0.57312,-0.216198,0.333409,0.414639,-0.614022,0.504214,0.294429,-0.974531,-0.778111,-0.475431,0.905028,-0.290573,-0.149028
1,0,Sender,103,0.839979,0,0.634878,-0.507941,-0.39312,-0.669918,0.988207,-0.444936,-0.49212,-0.0784928,-0.148899,-0.965518,-0.564713,-0.912609,0.870247,0.836037,0.189621,0.332557,-0.932796,0.109409,-0.697502,-0.0328442,-0.549246,0.999282,-0.367665,-0.556648,-0.850461,-0.442683,-0.473947,-0.307679,0.997452,0.312245,-0.896433,-0.95975,0.0997244,-0.388201,0.300927,0.101749,-0.696653,-0.426466,0.745824
1,0,Sender,104,0.0448701,0,0.15232,-0.283623,0.829187,0.35644,0.563034,-0.325721,0.711223,-0.462628,-0.381123,0.373835,-0.806574,-0.529811,0.224262,-0.592019,-0.844422,-0.2507,0.873144,-0.00390706,0.735413,-0.262235,0.820359,0.313041,-0.951693,0.167872,0.581287,-0.784451,-0.54596,0.630856,0.391892,-0.217468,0.388621,0.149405,-0.814814,-0.182057,-0.309768,-0.993318,0.471503,-0.603971,-0.636889
1,0,Sender,105,0.413377,0,0.124821,-0.668598,-0.808646,0.468984,0.389977,0.930783,-0.0176014,-0.104242,-0.275282,-0.12228,0.198127,-0.998476,-0.637476,-0.969892,0.544687,0.761315,0.987763,-0.553383,-0.672356,0.387873,0.667728,0.607532,-0.987708,0.272331,-0.837367,-0.12507,0.32031,0.0602354,0.634089,-0.0666644,0.776795,-0.888499,0.277412,0.688095,-0.553665,0.762864,0.666435,0.0715096,0.542718
1,0,Sender,106,0.298404,0,-0.205382,0.674496,-0.206873,-0.498814,0.207565,0.776932,0.65371,-0.0885395,-0.181779,0.948703,0.629646,0.682072,0.660958,-0.857095,0.953405,0.830306,0.929116,-0.538769,0.0755962,0.593009,-0.119287,0.986323,-0.716644,-0.568411,-0.650542,0.634689,-0.682761,-0.156479,0.585817,0.900625,0.461197,-0.741403,-0.351821,0.903517,-0.00719171,0.956129,0.460013,0.2769,-0.748545
1,0,Sender,107,0.713275,0,0.360558,0.31724,0.130215,0.542413,-0.331511,0.481079,-0.172552,0.116156,-0.344693,-0.544184,0.163868,-0.0791137,0.0552697,0.647254,-0.215151,0.897834,-0.0574493,0.900069,0.136761,0.283332,-0.941396,-0.158541,-0.689343,-0.785626,-0.743741,-0.479919,0.500826,-0.898847,0.27771,0.86625,-0.754414,-0.0760895,-0.727332,-0.401768,-0.0278697,-0.767547,0.432782,0.683795,0.985159
1,0,Sender,108,0.526903,0,0.781693,0.504816,0.451545,-0.745579,-0.838679,0.692372,0.835986,-0.494102,-0.771384,-0.672186,0.799226,0.445937,-0.670153,-0.675949,0.469466,0.808701,-0.575235,0.208614,-0.611406,0.260214,0.085443,0.775074,0.336539,-0.478931,0.666933,-0.74574,-0.163064,-0.845385,-0.690937,0.0571265,0.36983,-0.919615,-0.673826,-0.519467,-0.60587,0.561236,0.154013,-0.499485,-0.179897
1,0,Sender,109,0.321711,0,0.0150526,0.176184,-0.785493,0.591383,-0.136294,-0.616496,-0.671223,0.66639,0.288505,-0.306255,0.169398,0.692186,0.205526,-0.382407,0.435105,0.147593,-0.726232,-0.34531,-0.848834,0.227665,-0.883529,-0.133711,0.911188,0.39287,-0.393211,0.117175,0.526205,-0.234271,-0.284363,-0.792624,0.241721,-0.855472,0.433873,-0.585454,-0.669304,0.334772,-0.0235103,-0.613194,0.365206
1,0,Sender,110,0.1404,0,0.542346,-0.0798729,-0.0514784,0.239273,0.551256,0.522147,-0.881575,0.495534,-0.365349,-0.308071,0.351508,-0.13311,0.166151,-0.20306,-0.968564,-0.644427,-0.780064,0.575944,0.697645,-0.491384,0.435457,-0.516552,0.34374,0.926089,0.833609,0.504209,0.843224,0.611647,-0.282302,0.0783804,0.654381,0.478601,-0.698091,0.393383,-0.494733,-0.560154,-0.0838049,-0.246984,0.330434
1,0,Sender,111,0.673557,0,0.975371,0.941665,-0.971759,0.748905,-0.572759,0.206625,-0.356168,0.881431,-0.0685916,0.119106,-0.580179,-0.152391,0.951299,0.602722,0.815929,-0.0924918,-0.683231,0.690697,-0.6606,-0.114666,-0.550441,0.869491,0.713275,0.191966,0.250325,-0.837081,-0.165017,-0.234326,-0.250058,0.329215,0.663002,-0.442559,0.295855,0.854572,-0.451514,0.531513,-0.235538,-0.389747,-0.0231371
1,0,Sender,112,0.802782,0,0.892101,-0.880393,0.114616,-0.633719,0.149154,-0.129194,-0.240082,0.443497,-0.179586,0.510186,0.00963526,0.430245,-0.900348,0.798336,-0.942442,0.942012,0.585876,0.00302193,0.921507,-0.495026,-0.631324,0.844488,-0.65184,-0.00206278,0.405301,-0.640042,-0.243372,0.975646,-0.831274,-0.776076,0.121656,0.147868,0.720987,0.526243,-0.712533,0.0939481,0.912696,-0.794731,-0.772649
1,0,Sender,113,0.222271,0,0.455173,-0.722602,-0.323396,0.973258,0.128928,0.184949,0.329305,-0.00209453,0.580452,-0.909838,0.491794,-0.167126,0.590766,-0.81732,0.580294,0.832284,-0.233727,0.420382,0.882666,-0.2315,0.585494,-0.836608,-0.361666,0.796842,-0.101115,-0.686809,0.0572736,0.52322,0.341467,0.79485,0.861016,-0.77724,-0.719511,-0.580233,-0.5452,0.108226,-0.740197,-0.710072,0.641559
1,0,Sender,114,0.636765,0,0.208318,0.888617,0.65092,0.990037,-0.180965,0.219407,0.593527,0.744222,0.925418,0.643532,0.703993,-0.582885,-0.825565,0.674415,-0.254295,0.784127,-0.135468,-0.765203,0.310258,-0.197436,-0.904462,-0.894744,0.883507,-0.139893,0.858735,-0.442018,-0.569473,0.697621,-0.0747976,-0.912407,-0.363582,0.677699,0.738201,-0.363898,0.126845,-0.0977968,-0.465495,-0.485726,0.894668
1,0,Sender,115,0.8599,0,-0.551229,0.986507,-0.252977,-0.993584,-0.489285,0.324634,-0.745586,0.347502,-0.386543,0.482311,-0.0532426,0.232108,0.0445367,0.53915,0.292438,-0.0874748,-0.290701,0.129341,0.0508175,-0.297398,0.579811,-0.0990164,0.701242,-0.865641,0.52396,-0.436372,0.4115,0.420745,-0.546487,0.536861,-0.47007,0.761408,-0.93853,-0.936634,-0.363052,0.100588,0.513234,0.883082,-0.174876
1,0,Sender,116,0.478275,0,0.382604,0.72139,-0.29865,0.836049,-0.293228,0.743529,-0.393867,-0.949517,-0.952652,-0.315154,-0.474781,-0.838283,0.0684247,-0.736225,0.207499,0.0558479,0.649635,-0.797856,0.433987,-0.413633,0.25274,0.310157,0.670042,-0.478353,-0.167523,-0.0356625,-0.653687,-0.0962524,-0.978956,-0.254773,0.331309,-0.258197,0.331824,-0.421593,-0.380837,0.112854,0.208092,-0.956712,-0.702137
1,0,Sender,117,0.502165,0,0.720938,-0.032729,0.0104013,0.665502,0.356583,0.248704,-0.946239,0.52714,-0.0356098,-0.519074,0.481767,-0.00873751,-0.728484,0.489683,0.616986,0.230092,-0.507928,0.237834,-0.431136,0.0812242,-0.171777,-0.218964,0.267672,-0.829974,-0.00762885,-0.0378854,-0.0129283,-0.155919,-0.139669,-0.40417,0.551941,0.301636,0.548925,-0.0067219,0.587494,-0.414286,-0.544993,0.157057,-0.307848
1,0,Sender,118,0.718828,0,0.949282,-0.631925,-0.572762,0.406135,-0.0468759,-0.462545,-0.793847,0.190425,-0.524875,0.0588598,0.00791424,-0.556366,-0.659618,0.737872,-0.537198,0.725006,-0.568163,0.391752,0.224367,0.10188,-0.0495946,0.421329,0.185628,0.0598652,0.777137,0.491955,0.0340725,0.872944,0.0782098,-0.521863,0.272745,-0.187839,0.531415,-0.17574,-0.631335,-0.490919,0.147149,0.560279,0.258637
1,0,Sender,119,0.503554,0,0.402013,0.463429,0.568734,0.245633,-0.861308,-0.668053,0.168559,0.489344,0.431979,0.948323,-0.528677,0.731446,-0.622432,-0.27041,-0.204961,0.565646,0.309905,-0.550495,-0.258679,-0.641203,0.966515,0.285194,0.248025,-0.736234,0.0386981,0.229952,0.817666,-0.20284,-0.216832,0.306273,0.286698,0.5013,-0.948848,-0.866118,0.83985,-0.172397,-0.0384436,0.372657,-0.700241
1,0,Sender,120,0.526777,0,0.892045,-0.638256,0.280326,0.14127,0.831192,0.478091,0.814345,0.507588,0.00427378,-0.885721,-0.337773,0.604303,-0.844402,0.692947,-0.50304,-0.560237,-0.897494,0.975376,0.566981,0.73391,-0.0168229,-0.599269,0.188271,0.224607,-0.190918,-0.721184,0.041675,-0.62407,-0.0780914,0.742987,-0.822709,-0.197404,-0.33174,0.456817,-0.532721,-0.932864,0.938999,0.395638,-0.293438
1,0,Sender,121,0.936117,0,0.816803,-0.720266,-0.013868,-0.353833,-0.15151,0.427697,-0.203218,-0.558149,-0.485866,0.49585,-0.679484,-0.462599,0.194412,-0.0717571,0.862936,-0.146582,0.319032,-0.222959,0.0266347,0.182583,0.0190651,0.253695,-0.84014,0.225604,0.916887,-0.519698,-0.375377,0.383787,-0.154772,-0.852445,-0.0446728,-0.923764,-0.102417,0.538862,-0.191641,0.0189416,-0.0969995,0.167683,0.0144511
1,0,Sender,122,0.866729,0,0.222187,-0.199271,0.349268,-0.50763,0.142841,0.206578,0.400553,-0.869391,0.965918,-0.418278,0.759018,-0.138865,-0.00390689,-0.0694543,-0.727086,0.711095,0.208446,0.62345,0.429595,-0.488744,-0.676579,0.333161,-0.370147,-0.755114,-0.234219,-0.540016,0.715097,-0.569531,0.88001,-0.55804,-0.233718,-0.630975,0.0326921,0.836918,0.844822,0.532349,0.461859,0.852758,-0.342413
1,0,Sender,123,0.883181,0,0.486727,0.237415,-0.684772,0.900733,0.27722,0.615814,0.571979,0.542466,-0.74113,-0.814576,0.0937124,-0.78343,-0.122696,0.61066,-0.681266,-0.259317,-0.131368,0.670859,0.78641,0.450921,-0.418352,0.0282927,0.426528,0.715872,0.364494,-0.243507,-0.714272,-0.983518,-0.110482,0.796784,-0.578324,0.55717,-0.20163,0.294727,0.750108,0.282576,-0.604386,0.867549,-0.76337
1,0,Sender,124,0.509004,0,0.719819,0.228304,0.676831,0.931858,0.963199,0.582713,-0.352745,0.670329,-0.214933,-0.827913,-0.292843,0.183637,0.392618,-0.853363,-0.0110266,0.80787,0.457289,0.0101811,0.445489,0.709196,0.449489,-0.0708463,0.256649,-0.0379607,0.329857,-0.739661,-0.480997,-0.422606,-0.325992,-0.801371,-0.388828,-0.785199,-0.794279,0.115897,0.112692,-0.137314,-0.737771,-0.389714,-0.860325
1,0,Sender,125,0.246461,0,0.808068,-0.0140316,0.890349,0.50866,0.15105,-0.703135,0.643725,-0.321573,-0.883646,-0.0903816,0.0113851,-0.130982,0.219389,0.870353,-0.263983,0.518663,0.652178,-0.302922,-0.879986,-0.55881,0.455134,-0.127912,0.390588,-0.118801,0.92507,-0.671862,-0.937763,-0.773324,0.614309,0.291613,-0.835039,0.311392,-0.856543,0.629752,0.346943,-0.582352,0.22996,-0.866513,-0.675216
1,0,Sender,126,0.0255373,0,0.806489,0.214493,0.426113,-0.474384,0.853649,0.960819,-0.545104,-0.197945,0.990232,0.494923,-0.260334,-0.438951,0.0299023,0.366571,-0.741923,0.0604453,-0.609557,-0.466478,-0.584824,-0.568098,0.128664,0.879755,0.63327,0.114643,-0.0828349,0.439567,0.72063,0.390085,-0.534851,0.505138,-0.746407,0.316845,0.811157,-0.50229,-0.242785,-0.305813,-0.571819,0.655103,0.00261317
1,0,Sender,127,0.510578,0,0.419171,0.994917,-0.603979,-0.075897,0.306536,-0.99332,0.530248,0.288772,0.859553,0.0818163,0.0688524,0.0406904,0.0827616,-0.382816,-0.912993,0.937334,0.0902511,-0.211873,0.920106,0.586112,0.853615,0.930951,0.344076,-0.730749,0.754533,-0.813834,-0.384576,0.768409,-0.195449,0.850057,-0.211466,-0.832024,-0.767889,-0.700926,-0.684982,0.116226,0.393724,-0.254483,0.595044
1,0,Sender,128,0.348303,0,0.694437,0.862462,0.356246,-0.615042,0.766949,-0.638944,0.562021,-0.0703631,-0.137502,0.196333,-0.977511,0.88428,-0.0955085,-0.519304,0.323371,0.376448,-0.165753,-0.19954,0.766793,-0.264,-0.541098,-0.124192,-0.0864898,0.223314,-0.0735987,0.796841,-0.184512,-0.843548,-0.258854,-0.221917,0.547325,0.651216,0.285496,0.46541,-0.653228,0.435317,0.396191,0.0181701,-0.481285
1,0,Sender,129,0.436633,0,0.913658,-0.26553,-0.331179,0.939665,-0.91554,0.811517,0.229841,0.307321,0.658931,0.69829,-0.992956,0.528712,0.90015,0.868117,-0.402576,0.885553,-0.132325,0.724745,0.625645,0.00321748,-0.415118,0.454872,0.899791,0.505043,0.935952,0.51506,0.271675,0.362145,0.455964,0.0364475,-0.366172,-0.578845,-0.676773,0.337706,-0.312687,0.349048,-0.939292,-0.507473,0.368061
1,0,Sender,130,0.407672,0,0.122989,-0.84392,-0.834463,0.231438,-0.902797,0.2294,-0.529915,-0.807787,0.273693,-0.572814,-0.67167,-0.180172,0.330998,0.971608,-0.362196,0.286552,-0.930305,-0.962076,-0.268292,0.0489074,-0.421478,-0.170101,0.378911,-0.854314,0.066764,0.157653,0.723012,0.772095,0.677984,-0.154224,0.661299,0.994267,0.671237,-0.193219,-0.812155,0.791193,0.33514,0.249105,0.915929
1,0,Sender,131,0.189675,0,0.28673,0.88183,-0.928209,0.159456,-0.190839,-0.0207366,-0.193409,-0.33501,-0.6175,-0.842722,-0.144485,-0.323136,0.121417,0.815979,-0.433608,0.218352,0.583838,0.147926,0.351975,-0.852723,-0.55771,0.208913,-0.0266562,-0.34082,0.149963,-0.0692052,-0.587319,-0.400832,0.425172,-0.696261,0.394279,-0.700506,-0.326052,-0.548414,-0.225434,0.499847,0.828258,0.462838,-0.735333
1,0,Sender,132,0.692167,0,0.788508,-0.71671,0.90789,0.268293,-0.177848,0.758822,0.120433,0.236274,-0.225057,0.93119,-0.0609598,-0.658854,-0.499658,-0.752476,-0.569168,0.367962,-0.0683129,-0.305481,0.200581,-0.0726798,-0.791985,0.211116,0.135936,0.421966,-0.167114,0.301487,0.557507,-0.669592,-0.534379,0.604597,0.137617,-0.79916,0.167414,0.193237,0.522817,-0.353348,0.635209,0.117123,0.237627
1,0,Sender,133,0.514934,0,0.00841003,-0.27333,0.135841,0.583556,0.726852,0.251314,0.0431779,-0.682169,0.0202113,0.360739,0.880691,-0.671821,-0.0784352,-0.870639,0.296297,0.11786,0.286926,0.340688,-0.94123,-0.277471,0.355466,-0.898107,0.488923,0.483835,-0.951541,0.732678,-0.842651,-0.12685,0.47492,-0.914051,0.284062,0.81085,-0.874271,0.991348,-0.171643,0.166711,0.770841,-0.901739,0.699177
1,0,Sender,134,0.164969,0,0.0472249,0.456305,-0.436078,-0.907783,-0.516209,-0.949667,0.329954,-0.0616587,0.59812,0.960315,-0.00788916,-0.818364,-0.444277,0.403903,0.190848,-0.165631,0.333962,-0.337879,-0.571954,0.52243,0.172507,-0.843041,-0.876022,0.324096,-0.701828,-0.366538,-0.0476551,-0.434235,0.61721,0.790636,0.86806,0.346255,-0.786143,-0.962604,0.95728,-0.390773,0.485714,-0.07786,-0.180823
1,0,Sender,135,0.362773,0,0.55016,0.318295,0.360937,-0.430594,0.35854,0.598858,-0.72975,0.539642,-0.177219,-0.0890459,-0.0494073,0.238226,0.997779,0.9933,-0.638809,0.284971,-0.982562,-0.505961,0.535756,-0.819449,-0.190913,0.470073,0.680786,-0.198694,0.41665,0.0875877,-0.10636,-0.344966,0.400928,0.812013,0.545536,0.161613,0.748619,-0.520299,-0.668379,-0.609467,0.811431,-0.944898,-0.564117
1,0,Sender,136,0.254038,0,0.24159,-0.249341,-0.802496,-0.964573,0.110995,-0.774933,0.0949377,0.490778,-0.511558,-0.944804,0.780112,-0.760654,-0.666563,0.339617,0.687144,-0.849811,-0.428235,0.27269,-0.198705,0.0240616,0.565129,0.63909,0.719435,-0.760728,0.302788,-0.906903,0.986276,0.0783027,0.208313,-0.980317,-0.300044,-0.20105,-0.347223,-0.26915,-0.376485,-0.387453,-0.543033,0.910305,0.489042
1,0,Sender,137,0.253779,0,0.519553,0.0217884,-0.770628,-0.296422,-0.530055,0.562289,0.645744,0.995409,-0.0314068,-0.652503,-0.104296,0.600366,0.482299,0.658272,0.169947,0.993406,0.486709,-0.179766,-0.534245,0.606263,-0.144332,0.0658076,-0.104026,-0.962616,-0.891765,-0.856025,-0.391374,0.685143,-0.988537,-0.962411,0.211119,0.755183,0.780818,-0.62448,0.21101,-0.0707269,0.117726,-0.925514,-0.625462
1,0,Sender,138,0.466054,0,0.0671574,-0.880523,-0.367027,-0.800968,0.688619,0.526628,0.359895,0.62473,-0.932416,-0.0726709,-0.474098,0.188139,0.82517,-0.896,0.507986,0.736684,-0.0780189,0.495107,0.731923,-0.703399,0.0996048,0.450984,0.314929,-0.337014,0.298888,0.495151,0.631356,-0.762131,0.370223,-0.686895,0.00991039,0.743143,-0.221801,-0.480177,0.202331,0.631421,0.632814,0.727094,-0.897462
1,0,Sender,139,0.461825,0,0.703661,0.38095,0.168451,0.704601,0.500662,-0.384458,-0.104812,-0.901217,0.39183,-0.178914,0.283222,0.0891755,0.495953,0.544068,-0.813857,-0.845491,-0.140342,0.262421,-0.992327,-0.563464,0.668549,0.586762,-0.0997804,0.858316,-0.602873,-0.165456,-0.459948,0.723963,0.0760609,0.725559,0.637276,-0.052783,-0.078727,-0.756247,0.393607,0.49987,-0.117607,0.833513,0.876758
1,0,Sender,140,0.782932,0,0.274284,-0.121224,-0.225554,-0.652272,-0.546437,-0.225113,0.75178,-0.391448,0.743645,0.328757,-0.928876,0.718256,0.846919,0.471949,0.390989,0.655279,0.34265,0.429199,0.428872,0.422366,-0.665996,-0.504107,-0.156585,0.141792,-0.363729,0.464186,0.951443,0.0179981,0.29974,0.18768,-0.650969,0.540644,-0.654182,-0.613522,0.408061,0.0200345,0.0933365,0.598603,0.904314
1,0,Sender,141,0.0640767,0,0.93063,0.28815,-0.221065,-0.28248,-0.506652,0.398029,-0.1409,0.227148,0.783619,0.537317,0.438937,-0.303249,-0.593887,-0.813628,-0.0601562,0.688419,0.393279,0.140635,-0.565188,-0.476848,0.308851,0.63182,-0.462415,-0.683012,0.959383,-0.364707,0.777191,-0.379876,-0.61145,0.0983941,0.0433408,0.39303,0.843961,-0.460863,0.0514052,-0.664191,0.234507,-0.716646,0.13673
1,0,Sender,142,0.360804,0,0.452305,-0.660039,0.387639,0.738746,-0.905024,-0.830921,-0.533877,-0.14771,-0.327224,0.96358,-0.78061,0.538803,-0.910029,0.34375,0.719891,-0.574569,-0.702914,0.991617,0.295279,0.585614,0.194577,-0.854789,0.859444,0.791255,-0.270231,-0.333766,0.431998,0.507459,-0.568084,-0.18808,0.787738,-0.522039,-0.181281,-0.332136,0.941062,0.316132,-0.414425,0.0535622,-0.060443
1,0,Sender,143,0.190516,0,-0.560486,-0.269932,0.841075,0.150297,-0.717161,0.883272,-0.941498,0.437539,0.0848865,-0.194007,-0.0150211,0.462917,0.94791,0.860021,0.602507,0.509333,0.0238113,0.0625602,0.147563,0.626661,-0.302564,0.275443,-0.00284745,-0.501516,-0.0524428,-0.675314,-0.308266,0.471792,0.200178,-0.442919,0.124284,0.707556,0.409698,0.445959,-0.251969,0.929733,-0.636208,-0.812393,0.506039
1,0,Sender,144,0.229196,0,-0.698823,-0.442072,-0.99738,0.469592,-0.694331,0.365222,0.191295,-0.465903,-0.471898,-0.466963,-0.386997,0.967888,-0.081126,0.65446,0.82457,0.197949,0.504078,-0.901308,0.465459,0.845808,0.125068,0.701773,0.876256,-0.0938117,-0.34077,-0.716615,-0.185756,0.756478,0.419507,0.735477,0.427253,0.458793,-0.842024,-0.860356,0.947976,0.721683,-0.915231,-0.648332,0.942118
1,0,Sender,145,0.539162,0,0.865221,-0.664296,-0.794414,-0.708343,-0.232559,-0.886535,-0.784153,0.777278,-0.316183,-0.301956,-0.216336,0.0770477,-0.549151,-0.43946,0.679414,-0.0603521,0.477871,-0.634521,-0.426971,-0.309304,0.352444,0.802289,0.0757771,-0.393151,0.674652,0.296374,0.981658,0.282986,-0.370464,0.373273,-0.18707,-0.196351,-0.0228157,0.04856,0.134876,-0.658046,0.465298,-0.0719823,0.187026
1,0,Sender,146,0.541889,0,0.83857,0.66728,-0.33006,0.979934,-0.137123,-0.381206,0.583606,0.985211,0.9,0.724484,-0.359164,-0.452688,-0.796773,0.419736,-0.0100316,-0.292472,0.675162,0.966057,-0.0458616,0.938379,0.246704,0.0833911,0.877737,0.214625,0.128229,-0.691523,-0.648902,0.680735,-0.914386,-0.929657,0.430686,-0.206631,-0.41736,-0.9834,-0.669889,0.106222,-0.526511,-0.824771,-0.221125
1,0,Sender,147,0.0858013,0,0.966272,-0.316844,-0.926897,0.226461,-0.0439825,-0.726603,0.928243,-0.0562643,-0.785838,0.465869,-0.771872,0.965454,-0.191154,0.46332,-0.582813,-0.186558,-0.782297,-0.987885,0.61066,0.912828,0.957434,-0.708348,0.848643,0.819424,-0.694304,0.859111,-0.901378,-0.406404,0.117929,-0.367864,-0.644137,-0.624062,0.374304,-0.148621,0.307905,-0.0452654,-0.233025,-0.560689,-0.149904
1,0,Sender,148,0.250857,0,-0.361746,-0.459976,-0.433341,0.936899,0.0428718,0.952795,0.355991,-0.460394,-0.840942,0.953032,-0.430614,-0.847494,-0.125792,-0.284846,-0.457907,0.298218,0.628961,-0.909417,0.725599,-0.535365,-0.392464,-0.31425,0.279912,0.299738,-0.217852,0.442507,0.0167931,-0.979207,0.0530931,-0.226654,0.150004,0.979875,0.320164,-0.193254,0.810128,0.973401,0.395304,0.455994,0.778775
1,0,Sender,149,0.139647,0,-0.27708,-0.803269,0.0207593,0.343639,0.371145,-0.991309,0.505882,0.594563,0.414932,0.23699,0.900052,-0.0642655,0.21231,0.815526,0.683414,0.179938,-0.288134,-0.767474,0.287067,-0.749294,0.949902,0.0407208,0.558886,-0.57482,-0.408249,-0.953173,0.940579,0.881266,-0.499461,-0.268091,0.436636,0.103779,-0.293078,0.789502,-0.674034,-0.0699267,0.389796,0.543883,0.402406
1,0,Sender,150,0.601493,0,0.814064,0.581198,-0.626049,0.268434,-0.558184,-0.795827,-0.878153,0.901298,0.45802,-0.9653,-0.863533,-0.121453,0.891451,0.282211,0.864055,-0.680075,-0.692467,0.99546,0.843445,-0.910832,0.813671,-0.0761972,-0.948573,0.274232,0.797843,0.49856,0.782169,0.812737,0.258926,-0.961148,-0.753132,0.0308694,-0.798107,0.859659,-0.246368,-0.0728116,0.172442,-0.19732,-0.379224
1,0,Sender,151,0.820525,0,0.721031,0.136887,0.354249,0.72734,0.439562,-0.25829,-0.429633,-0.59443,0.140349,0.782504,0.746176,-0.562454,-0.541767,-0.936702,-0.325129,0.115704,-0.0937238,-0.266316,0.653582,0.229806,-0.536425,-0.467785,0.032046,0.945096,0.538679,-0.0249261,-0.259607,0.0677979,0.557841,0.137533,0.246071,-0.966517,0.996837,0.463177,0.355328,0.505316,0.736273,0.622556,-0.066645
1,0,Sender,152,0.982574,0,0.887259,-0.605498,-0.667146,0.990635,0.19443,-0.386809,-0.656405,-0.375542,0.707736,-0.358557,0.528005,-0.184411,0.843278,-0.567053,0.158615,-0.161513,-0.426159,0.03735,-0.506687,0.835941,-0.433138,-0.873131,-0.231506,0.879909,0.443573,-0.552964,0.484495,-0.913563,-0.886861,-0.0733783,0.161248,-0.0998818,0.77428,-0.466619,0.627843,0.918246,-0.858063,-0.751413,-0.537325
1,0,Sender,153,0.483542,0,0.512442,0.997718,-0.53027,0.281406,0.719234,0.940508,-0.597017,-0.0760892,-0.593886,0.0364102,0.033887,0.478095,-0.359638,-0.78288,-0.479008,-0.931536,-0.436739,0.99205,0.128255,-0.847847,-0.586584,-0.120054,0.933184,-0.88689,-0.864379,-0.355144,0.50571,-0.145182,-0.398242,0.588748,0.195842,0.272678,-0.973551,-0.773859,0.953427,-0.323018,0.132643,0.772744,-0.152038
1,0,Sender,154,0.167761,0,0.668961,0.0616756,-0.613248,-0.667743,0.199577,0.712903,0.155709,-0.0748929,0.351534,0.481024,0.124829,0.155295,0.514506,-0.773542,-0.104765,0.399745,0.342204,-0.0966041,-0.411782,-0.745034,0.927753,-0.535367,0.191743,-0.403373,0.325698,-0.72,0.659508,-0.523992,0.972947,-0.710774,-0.462517,0.810716,-0.217028,0.72961,-0.42551,-0.328021,-0.709388,-0.379628,0.245971
1,0,Sender,155,0.00568999,0,-0.538781,0.172684,-0.112738,-0.427599,0.115268,0.516428,0.721731,0.0475812,0.962583,-0.0319342,-0.345098,-0.958532,0.144134,-0.883463,-0.588991,0.235654,-0.633938,-0.466692,-0.315593,-0.212479,-0.557209,0.0553923,0.439139,-0.116408,-0.0108545,-0.245615,-0.378856,-0.367491,-0.805639,0.901521,-0.76422,0.88233,-0.324099,-0.98849,-0.517054,0.598737,0.656106,0.753441,-0.87942
1,0,Sender,156,0.490132,0,0.150227,-0.850536,-0.190613,-0.192799,-0.06296,-0.803148,-0.502546,0.794243,0.299429,0.780474,-0.803172,0.151402,0.406493,-0.30899,0.494637,-0.410827,0.294421,-0.511887,-0.614537,0.398278,-0.19539,-0.6651,0.462667,0.79807,-0.272288,-0.0180181,-0.117073,-0.413327,-0.802206,0.0494736,-0.201764,-0.407202,-0.0943916,0.811691,0.424294,0.553631,-0.776403,0.752161,0.517689
1,0,Sender,157,0.190648,0,-0.736377,0.206381,-0.974534,-0.822908,-0.227899,-0.722255,0.064131,-0.167054,0.605273,0.838146,0.185725,-0.105915,0.0473913,0.803404,-0.0823437,-0.293854,0.985293,-0.133034,-0.510968,0.000278948,0.00199592,-0.600923,-0.3459,0.0833986,-0.371694,-0.374726,0.973374,0.0147149,-0.501627,-0.0265636,0.265294,-0.113508,-0.165861,0.653419,-0.889876,-0.172901,0.999898,0.446118,-0.131727
1,0,Sender,158,0.248211,0,-0.107389,-0.751469,-0.235754,0.840068,-0.889635,-0.600895,0.380473,-0.701408,0.861197,0.237288,0.890895,-0.943689,-0.119625,0.542058,-0.956657,0.658516,-0.381106,-0.880219,-0.045411,0.743716,0.535455,0.0575107,-0.118115,0.146438,0.681671,-0.233367,0.673972,-0.446512,0.570428,-0.0383592,-0.190905,-0.544435,0.725426,0.852453,0.824083,-0.565811,-0.494028,0.551182,0.59141
1,0,Sender,159,0.625127,0,0.424976,-0.146424,-0.981397,-0.512767,-0.380786,-0.363459,-0.83816,0.168556,-0.0909888,-0.58286,0.367898,-0.108277,0.0846277,-0.110559,-0.149033,0.901809,-0.394819,-0.806725,-0.424946,0.165215,0.0917714,0.0419153,0.713013,0.668493,-0.610541,0.46902,-0.540738,-0.73628,0.777339,0.440057,0.0240576,-0.45064,0.92476,0.677126,0.726378,-0.145945,0.733621,0.772433,-0.392954
1,0,Sender,160,0.893332,0,0.366464,-0.864126,0.606135,-0.672208,-0.423825,0.375405,0.326256,0.840549,0.963334,-0.101994,0.44215,-0.981227,-0.649462,-0.435308,-0.0306933,-0.0858303,-0.11646,-0.193077,-0.778951,-0.0620952,-0.715276,-0.996546,0.657541,-0.880286,0.345241,0.118051,-0.599253,-0.176457,0.30055,-0.112377,0.664206,-0.87376,-0.00188104,0.447107,-0.501155,0.272032,-0.418113,-0.626617,0.96795
1,0,Sender,161,0.308155,0,-0.023433,-0.861821,0.16639,-0.968831,-0.0507247,-0.795187,0.601565,-0.924006,-0.500124,-0.611503,-0.28747,0.301914,0.0948074,0.857796,-0.217698,0.731351,-0.771529,-0.249061,0.593927,-0.127908,0.395409,-0.403535,-0.789478,0.419047,0.13928,-0.249093,0.0243332,-0.336879,-0.829262,0.795718,0.0935976,0.105746,-0.764236,0.13776,0.547671,0.39097,0.626298,-0.885924,0.936722
1,0,Sender,162,0.410301,0,0.438853,-0.188698,-0.712734,-0.809859,0.797075,0.856207,0.0474188,-0.841032,-0.265443,-0.36133,0.97146,-0.00332501,0.656778,0.387463,-0.706771,0.62362,0.302974,-0.299029,0.0599849,-0.968392,-0.182709,0.219327,-0.682748,0.73999,0.0680223,-0.535831,-0.228906,0.782044,0.0540703,0.0341014,-0.728761,-0.80182,0.0584647,-0.27761,-0.787408,-0.97383,0.944209,0.761038,0.27315
1,0,Sender,163,0.304347,0,0.18178,-0.160539,-0.570935,0.252061,-0.812233,0.249216,0.149122,0.894617,-0.0487681,0.315353,0.470179,-0.156158,-0.952352,-0.825811,0.0751904,0.773631,0.83256,0.95805,0.292748,-0.0477614,0.544162,-0.396117,-0.480827,-0.109601,0.398994,-0.8642,-0.126341,0.383529,-0.410162,-0.142383,-0.988636,-0.102251,-0.341142,0.384577,0.824622,0.71901,0.19334,0.164787,0.649002
1,0,Sender,164,0.480365,0,0.0489733,0.917161,-0.379849,-0.295489,-0.245184,0.687164,-0.677999,0.666287,-0.0957707,-0.921657,0.268686,-0.665537,-0.172363,-0.0304723,-0.514653,0.31885,-0.601164,-0.942054,-0.683068,-0.743925,0.857966,-0.690103,0.663494,-0.462517,-0.926208,0.700272,-0.832472,0.932219,-0.458635,0.329444,-0.310484,-0.694628,-0.649082,0.501294,0.672768,0.754459,-0.0519418,-0.798243,0.766963
1,0,Sender,165,0.737337,0,0.228234,0.50348,-0.179229,0.370068,-0.472174,-0.181764,-0.951373,0.38158,0.834034,0.86064,0.915479,-0.819884,0.52591,-0.754078,0.557612,-0.422264,0.623531,-0.968679,0.346226,0.774208,0.247289,0.382136,0.15065,0.979429,-0.892701,-0.773531,0.799711,-0.323212,0.330068,0.977592,0.836815,0.227001,0.915889,-0.991868,-0.751614,-0.754759,-0.227317,0.679904,-0.0191252
1,0,Sender,166,0.240787,0,0.549074,-0.332935,-0.723899,0.511951,0.717063,0.0634127,-0.311434,0.867084,-0.889663,0.294979,0.66534,-0.279363,0.0835014,-0.977159,-0.576725,0.304449,0.06715,-0.334483,-0.0467146,0.388867,0.333339,-0.0537575,-0.884776,-0.444347,-0.908275,0.111231,-0.185664,0.696739,-0.401922,0.983024,0.894326,-0.903282,0.900201,-0.583358,0.753529,-0.142929,0.980479,0.575255,-0.787804
1,0,Sender,167,0.836539,0,0.693286,0.721068,-0.996093,-0.887972,-0.439716,0.800026,-0.360009,-0.827144,-0.599062,0.83276,0.445003,-0.373945,-0.0325367,0.479892,-0.288196,-0.596851,0.986913,0.599247,0.0517648,0.809557,-0.418802,0.848833,0.658533,-0.944281,-0.420377,-0.243273,-0.921175,-0.235264,0.638366,0.678341,0.143534,-0.794895,0.87675,-0.767484,0.572844,0.856565,0.787557,-0.496089,0.123621
1,0,Sender,168,0.948331,0,0.737592,-0.419106,0.90741,-0.060089,0.586556,-0.106569,0.91257,-0.995966,0.263026,-0.695194,-0.67141,-0.338695,-0.957149,-0.0857283,-0.770224,0.833141,-0.487389,0.441572,-0.1631,0.111044,0.933313,0.461494,-0.196945,0.0701993,-0.647158,-0.635939,0.142454,0.231996,-0.955111,0.460935,0.314453,0.0459429,0.190186,-0.760668,0.569726,0.479123,-0.141136,0.358662,-0.326537
1,0,Sender,169,0.782179,0,0.0379577,-0.0101021,0.100305,-0.564123,0.590594,0.169098,-0.210883,0.0158307,-0.969056,0.83305,0.0779818,0.732405,-0.395537,0.970004,0.455649,0.133367,-0.683285,-0.852762,-0.226096,0.00559733,0.443367,-0.902408,-0.576234,-0.375106,0.572308,0.573624,-0.388773,-0.156779,-0.500749,-0.00868875,0.0671616,-0.089604,0.957549,-0.560863,-0.553565,0.248488,-0.523731,0.869668,-0.125492
1,0,Sender,170,0.553213,0,0.729947,-0.0583858,0.040433,0.465761,-0.581639,-0.106583,-0.39675,-0.363067,0.0778049,0.632858,0.329043,-0.441984,0.814687,-0.261045,-0.390194,0.441862,-0.982948,-0.704704,-0.393195,-0.964833,0.129816,-0.210144,0.372314,0.840601,-0.192407,-0.969756,0.0955917,-0.993332,-0.131298,-0.559443,0.50201,0.473115,-0.255268,-0.0455697,0.668645,-0.286914,0.125912,-0.807343,-0.229158
1,0,Sender,171,0.104135,0,0.963885,0.590869,-0.573435,-0.344128,-0.373458,0.338518,0.0815762,-0.554767,-0.192619,-0.194893,-0.0793855,0.335906,0.370373,-0.593312,-0.314941,0.335754,-0.0578582,0.411394,0.448316,0.966797,-0.342031,-0.423096,-0.671649,0.614389,0.803686,-0.441988,0.727847,-0.500116,-0.338787,0.0603611,-0.689263,-0.365646,0.881267,-0.130403,-0.379456,-0.969112,-0.222111,-0.303736,-0.854081
1,0,Sender,172,0.789129,0,0.516261,0.161606,-0.942014,-0.343634,-0.390661,0.382321,-0.766751,-0.026634,0.537826,-0.404144,-0.840181,-0.0248651,0.189076,0.663785,0.531699,-0.787698,0.533769,0.316046,-0.742944,-0.682889,-0.889747,-0.621564,0.0589557,-0.840048,-0.373488,0.874031,-0.910888,-0.976162,-0.152853,-0.0910962,0.166183,0.189294,0.805969,-0.50894,-0.9129,0.998529,-0.86336,0.661024,-0.992305
1,0,Sender,173,0.497722,0,0.835154,0.178749,0.569317,-0.132237,0.792943,-0.289338,-0.299424,-0.520585,-0.3591,-0.852351,0.277846,-0.469732,0.502282,-0.967556,-0.12858,-0.281531,-0.817615,-0.0760869,0.0934906,0.715775,-0.849732,0.598539,0.623171,0.0368029,-0.304715,-0.301962,0.346723,-0.256757,0.0891798,0.691214,0.0805975,0.323678,-0.468601,-0.933166,0.261841,-0.711113,-0.698261,0.431041,-0.3099
1,0,Sender,174,0.384562,0,0.38732,-0.572809,-0.33289,0.0387729,-0.0659114,0.540258,0.525015,-0.104173,-0.365694,-0.744959,0.0268467,-0.0285917,-0.260278,0.109516,0.249026,-0.441676,0.103773,0.226187,0.459437,0.936871,-0.627195,0.304221,-0.413067,0.24066,0.581656,-0.650161,-0.107263,-0.04598,0.565041,-0.49705,0.252267,0.994731,0.945929,-0.387174,-0.0386913,-0.833676,0.662469,-0.103815,-0.195501
1,0,Sender,175,0.439881,0,0.512648,0.602417,0.591284,-0.216887,-0.39791,-0.245458,-0.319052,0.618653,0.38358,-0.943469,-0.571722,-0.653694,0.468557,0.196896,-0.910327,0.413719,0.941457,0.233287,0.744448,0.100015,0.786383,0.0164657,0.383531,-0.208271,-0.44395,0.920232,0.584393,-0.573685,-0.0567814,0.703382,-0.114008,-0.659799,0.60848,-0.668603,0.154751,-0.550286,-0.786422,-0.201618,-0.993677
1,0,Sender,176,0.147157,0,0.385747,-0.49518,0.605108,-0.287418,0.140793,0.696694,-0.853909,0.433502,0.22207,0.814341,0.59486,-0.942949,0.895766,-0.191973,0.628987,0.844607,0.345998,-0.370486,-0.102594,0.00769534,-0.207497,0.830665,0.462298,0.517132,-0.53599,0.834161,0.111737,-0.777119,-0.800062,-0.451768,-0.0572064,-0.14967,-0.104621,0.780799,0.195888,0.260012,-0.100021,-0.175026,0.421512
1,0,Sender,177,0.835918,0,0.887712,-0.539899,0.336058,0.316936,-0.619893,-0.600116,-0.595534,-0.443264,0.0126595,0.275271,0.0810429,0.00569958,0.56319,-0.837239,0.233574,0.170342,-0.084058,0.175933,-0.768167,-0.350725,-0.0714348,-0.255437,-0.886477,0.5994,0.193962,0.19623,0.486688,-0.208374,0.113905,-0.833085,0.540297,0.552385,-0.256459,-0.645265,-0.455378,0.269931,-0.442802,0.714838,-0.0770485
1,0,Sender,178,0.20224,0,0.280573,0.745,0.57879,0.441746,-0.418347,-0.422154,-0.106428,-0.994792,-0.140045,-0.964454,-0.221496,-0.62634,0.928434,-0.954267,0.943123,0.597734,0.495368,-0.996731,-0.760769,0.112441,0.890961,0.319187,-0.567999,0.92272,-0.825557,0.576323,0.695244,0.492582,0.778232,-0.529544,0.523702,0.696939,-0.379435,-0.421298,-0.137307,0.966752,-0.363087,0.951351,0.10589
1,0,Sender,179,0.238148,0,0.17205,0.538492,0.572778,0.322794,-0.537844,0.287576,-0.380913,0.477536,-0.37752,0.215673,0.123398,-0.178005,-0.71158,0.637155,-0.568579,-0.811706,-0.673304,-0.456694,-0.232826,-0.228893,-0.314543,0.637922,-0.357658,0.120972,0.230742,-0.983471,-0.771983,0.458238,-0.186792,0.737545,0.524239,-0.981204,0.140908,0.2016,0.816987,0.373468,-0.0825044,-0.139886,0.388458
1,0,Sender,180,0.78256,0,-0.338589,0.0794057,-0.175918,0.970256,-0.885062,0.694136,-0.362055,0.233232,0.917078,0.31228,-0.665363,-0.966962,0.214903,-0.193131,-0.205293,0.281171,0.344742,0.484224,-0.305912,0.238291,-0.178598,-0.113622,0.594375,0.349223,0.587556,-0.328779,0.570814,0.201738,0.408183,-0.404234,0.413629,-0.361477,-0.547358,-0.132348,-0.747119,-0.282171,0.704231,0.320512,0.731185
1,0,Sender,181,0.967253,0,0.756937,0.389827,0.891067,0.547746,-0.265629,-0.805166,0.945363,0.369651,-0.371015,0.446363,-0.0506467,0.313606,-0.524147,0.974643,0.461692,-0.849322,0.556873,0.641236,0.738777,-0.250283,-0.955554,-0.286964,0.349911,0.382313,0.937947,0.810939,-0.311203,0.485066,0.810534,0.713889,0.0622418,0.180228,0.885073,-0.684868,-0.0841384,0.284543,-0.232451,-0.791795,-0.796685
1,0,Sender,182,0.923366,0,0.711904,-0.349809,-0.326429,0.64249,0.163846,-0.723525,0.4269,-0.702262,0.196319,-0.0751818,0.520107,-0.241427,0.211427,0.614902,-0.0846232,0.454906,-0.163309,-0.907008,0.0487587,0.0381809,-0.42053,-0.485569,-0.870728,-0.632012,0.694564,0.396092,-0.747045,0.323803,0.311963,-0.710212,-0.456833,0.181546,0.0175227,-0.418966,0.944804,0.922403,-0.725136,-0.721476,-0.166443
1,0,Sender,183,0.151405,0,0.275594,-0.792334,0.144032,-0.546642,-0.773005,0.07495,-0.129393,-0.847466,-0.879525,0.479769,0.932617,0.813128,0.358573,-0.838866,0.50085,0.666486,-0.413499,0.885162,-0.798789,-0.0858065,0.827502,-0.629518,0.938083,-0.464921,-0.528831,-0.256972,-0.144093,0.720019,0.738717,0.579563,0.140347,-0.0539589,-0.0843167,-0.536101,0.0607403,0.0562087,-0.299915,0.54298,-0.0791392
1,0,Sender,184,0.862917,0,0.265188,-0.694795,0.17255,0.909056,0.423775,0.443564,-0.165021,-0.897366,-0.605169,-0.240844,-0.934462,0.698916,0.167556,0.0304327,0.37955,-0.647557,0.0182854,-0.615644,0.521557,0.323118,0.241245,0.658679,-0.624412,0.21444,-0.415707,0.719501,0.232816,0.651934,0.317637,0.947084,0.200044,-0.802882,-0.4217,-0.0213717,-0.319582,-0.33264,-0.613815,0.92767,0.084127
1,0,Sender,185,0.109399,0,0.0521202,-0.761306,0.113783,-0.186406,0.283635,0.282059,-0.728717,-0.601086,-0.555421,-0.933358,-0.964907,-0.266949,0.858929,0.409731,-0.24771,0.10134,0.689921,0.0582143,-0.881655,0.525252,0.789151,0.946819,0.741947,-0.609101,-0.847824,0.904737,0.459768,0.713275,-0.457559,0.221783,0.629124,-0.180001,-0.708223,0.21548,-0.597345,-0.387714,0.91385,-0.56093,0.287475
1,0,Sender,186,0.916955,0,0.27246,0.87313,-0.670647,0.295208,-0.958359,0.623559,0.278277,-0.0726937,0.491225,-0.510529,-0.305817,-0.275339,0.384684,0.790795,0.920546,0.354028,-0.69475,0.15538,-0.992937,-0.989479,0.0508217,-0.675898,0.326424,-0.550339,-0.458822,0.57023,-0.923082,-0.511244,-0.465522,-0.786735,0.134729,0.0987235,-0.176065,0.398447,0.500247,-0.787928,0.81012,0.584256,0.955177
1,0,Sender,187,0.424059,0,0.303987,0.760991,-0.504789,0.562239,-0.797674,-0.94419,-0.19965,-0.924795,-0.734085,0.572683,-0.239153,-0.40139,-0.535213,-0.436518,-0.913061,0.0720426,0.587294,0.286762,-0.38316,-0.0386935,-0.636606,0.645637,-0.480399,-0.599765,0.459539,-0.452942,-0.928848,0.386758,0.924198,-0.438543,-0.513205,0.751011,-0.316334,-0.580412,-0.244035,0.0240641,0.0862141,0.883082,0.503489
1,0,Sender,188,0.886898,0,-0.390134,-0.417515,0.00490782,0.177388,0.929953,0.118652,-0.719102,0.931903,-0.28733,0.618025,-0.29245,0.779532,0.556533,0.338424,0.73178,0.46272,0.323823,-0.869141,0.0867297,0.675893,-0.205432,-0.644861,0.863937,-0.682606,-0.0379295,0.464703,-0.413715,-0.391717,0.172119,0.571452,0.144041,-0.190529,-0.268435,-0.6001,0.155291,0.970146,-0.648597,-0.0555184,-0.507616
1,0,Sender,189,0.251598,0,0.410686,-0.491663,0.317564,0.33867,0.266189,-0.804767,-0.912691,0.981297,-0.302124,0.781159,-0.713685,-0.361948,0.728683,0.0958047,0.707906,-0.40316,-0.758474,0.215294,0.832317,0.249657,0.269766,0.705471,0.64791,-0.10623,-0.198345,-0.628692,0.575288,-0.812491,-0.464569,-0.531628,0.595435,0.771016,-0.684701,-0.239917,0.43474,-0.327661,0.292763,0.189425,0.693331
1,0,Sender,190,0.956308,0,0.098051,-0.583673,-0.813153,0.369761,-0.943191,-0.817319,0.0711611,0.343566,0.338932,-0.809124,-0.874537,-0.680464,0.569811,0.721805,0.112453,-0.16077,-0.407511,0.44729,-0.315142,-0.0902004,0.889339,-0.101345,0.435075,-0.355996,-0.00107072,-0.755478,0.112412,0.289712,0.807592,0.563183,0.561967,-0.209481,0.508956,-0.785974,-0.364627,0.597697,-0.50197,0.949901,-0.296367
1,0,Sender,191,0.115339,0,0.748439,0.707729,0.273319,-0.66882,0.35416,0.912145,0.0276089,0.0784714,-0.912554,-0.383527,-0.145205,-0.668717,-0.498739,-0.494205,-0.283725,0.804585,0.201904,-0.820732,0.771822,-0.567344,0.672657,0.433866,-0.185372,0.64247,0.0264431,0.750442,-0.254519,0.489787,0.548434,0.923396,0.429276,-0.320882,-0.470331,0.718729,-0.53235,0.538327,0.0856036,-0.631023,0.0151383
1,0,Sender,192,0.543262,0,0.918977,0.0587237,-0.541426,-0.230424,0.138994,0.947073,0.770106,0.901942,-0.958907,0.916246,0.275483,0.12112,0.889764,-0.252985,0.711803,-0.835246,-0.197901,0.870896,-0.419349,-0.144327,-0.0145193,-0.055156,0.300593,0.50227,0.628406,0.471791,-0.592865,0.846123,-0.875067,-0.499187,0.255766,-0.698357,0.538075,-0.472897,0.187554,-0.48834,-0.127034,0.30073,-0.797925
1,0,Sender,193,0.255868,0,-0.0401358,-0.472479,0.028339,0.807257,-0.197709,0.103901,-0.578333,-0.983314,0.819353,-0.190667,-0.756591,0.944709,-0.517046,-0.149568,0.760636,-0.398391,-0.707975,-0.809293,-0.634989,-0.797198,-0.965723,-0.120425,-0.445915,0.734547,0.229222,0.572989,0.430312,-0.149733,0.718655,0.651777,-0.562675,-0.21686,0.106052,0.906105,0.144245,-0.845403,0.955133,-0.124081,-0.41611
1,0,Sender,194,0.273067,0,0.741951,0.88277,0.419668,0.0772532,-0.812383,-0.51266,-0.410109,0.6136,-0.665384,-0.830154,-0.456402,0.346789,0.515065,-0.808839,-0.527347,0.692609,0.681887,-0.198542,-0.970934,0.618966,-0.735738,-0.50259,0.888554,0.0729811,-0.208348,-0.477855,0.529741,0.277624,-0.53334,-0.0156057,-0.811678,-0.939112,-0.385026,-0.602179,-0.601175,0.0113278,0.990408,-0.544357,0.0465564
1,0,Sender,195,0.762892,0,0.770469,0.392334,-0.143057,-0.122909,0.786048,-0.603346,0.281755,0.855824,-0.423469,0.824688,-0.652687,0.612907,0.480671,0.0692545,0.286868,0.156085,-0.863707,0.786447,0.595782,-0.785151,0.741606,0.700262,0.401004,0.868878,-0.372654,0.361717,-0.223292,0.39794,0.531142,0.305783,-0.965991,0.439931,-0.336337,0.189671,0.362938,0.183546,-0.37059,-0.535857,-0.195956
1,0,Sender,196,0.322211,0,-0.516445,-0.845618,-0.247045,0.392262,0.806464,-0.918159,0.550947,-0.337386,0.922228,0.442712,0.757565,-0.154989,-0.32427,0.329448,0.869324,0.0673138,0.719509,-0.404628,0.380045,-0.612645,0.792927,-0.738862,-0.267987,-0.785695,0.93207,0.748208,0.344314,-0.182519,0.625941,0.572012,0.331155,-0.549481,0.794023,-0.184348,-0.60068,0.633202,0.941793,0.684182,-0.853635
1,0,Sender,197,0.502953,0,0.8267,0.0916541,-0.694598,0.489079,0.908192,-0.852285,0.50406,-0.874357,-0.0732196,-0.235965,-0.871617,-0.738734,-0.858793,-0.776119,-0.166666,0.769234,-0.678116,-0.672141,-0.392931,-0.502732,0.833454,0.92814,-0.671646,-0.0761745,0.0447501,-0.697236,-0.0659866,-0.131033,0.799618,0.438541,-0.212397,0.0420777,0.564238,0.857317,0.118712,-0.639477,-0.360746,-0.907724,0.0186832
1,0,Sender,198,0.355277,0,-0.294323,0.934447,0.694467,-0.0820851,-0.577128,-0.12973,0.498686,0.326934,0.646872,-0.018808,0.754446,-0.13591,0.102515,-0.316127,-0.977463,-0.632137,0.819655,0.017334,-0.101355,-0.735978,0.430347,0.160917,0.909124,-0.602512,-0.756021,0.525286,0.401289,-0.479503,-0.412144,0.906529,0.223023,-0.710208,0.669797,-0.480542,0.281382,-0.231673,0.275303,0.641252,0.7869
1,0,Sender,199,0.477354,0,0.686671,-0.123883,-0.482213,0.358686,-0.0609406,-0.668098,0.20137,0.104286,0.640743,-0.627527,0.7989,0.129434,0.185335,0.661494,-0.634964,0.787593,0.0150747,0.379591,0.674671,0.0873047,0.433652,0.21036,0.334621,0.357631,-0.368114,-0.750184,0.239889,0.781205,0.912915,-0.642474,0.430948,0.884161,-0.990119,-0.445412,-0.318372,-0.863999,-0.411411,-0.750819,0.766368
1,0,Sender,200,0.529912,0,0.809497,-0.450817,0.0967976,-0.00805268,0.476556,-0.686201,0.199379,0.918708,0.0321171,0.391409,-0.127058,0.383357,-0.649469,0.921856,-0.96035,-0.0685268,0.445419,-0.421926,0.763366,0.683898,0.686563,-0.861891,-0.213043,0.385867,-0.291448,0.832537,-0.174286,-0.642676,0.362601,-0.157177,0.0346085,-0.185206,0.710853,-0.250073,0.130943,-0.142154,0.620335,0.0469002,0.0535918
1,0,Sender,201,0.874806,0,0.505597,-0.347596,0.0702798,-0.651163,0.166747,0.0868722,-0.180918,0.810033,-0.826783,-0.183184,-0.958463,-0.132902,0.63165,0.0732407,-0.946889,0.158901,-0.834656,-0.479921,0.315264,-0.0678646,-0.509156,0.938286,-0.122736,0.490509,-0.11349,-0.37318,-0.384931,-0.256386,-0.51608,0.782726,-0.217493,-0.573048,0.423497,-0.306836,0.00754242,-0.0602161,-0.865055,-0.479472,-0.363134
1,0,Sender,202,0.732024,0,0.404731,-0.541378,-0.27856,-0.249156,0.216164,-0.455369,-0.293501,0.0142785,0.0233781,-0.704913,0.637051,0.922395,0.746017,-0.88496,-0.568487,-0.51071,-0.340678,0.687421,0.913977,-0.27561,0.225004,-0.837824,-0.984716,0.84994,-0.865272,0.284314,-0.538557,-0.924805,-0.438234,0.422779,0.00230045,-0.992082,-0.498024,-0.11209,0.291302,-0.175867,0.970045,-0.378154,0.949611
1,0,Sender,203,0.619181,0,0.0191556,0.252013,0.414707,-0.3569,-0.351236,-0.743184,0.322684,-0.521349,-0.199586,-0.26346,0.621039,-0.814299,0.19565,-0.291345,0.885981,-0.919974,-0.7005,-0.351136,-0.626115,-0.878014,0.982486,-0.563229,0.750435,0.209502,0.286293,0.0751282,-0.722476,-0.780382,-0.702264,-0.854921,0.948808,-0.851944,0.552119,0.94992,0.473542,0.121309,0.515158,0.0447108,0.413533
1,0,Sender,204,0.139863,0,0.691037,0.973919,-0.991751,0.0481497,-0.862559,-0.958485,-0.225449,0.795067,0.798869,0.157564,0.213811,-0.481127,-0.872968,0.932657,-0.670888,0.329809,-0.551822,0.630512,-0.911737,0.957688,-0.471668,0.220023,-0.611458,0.313603,-0.997436,-0.375671,0.417222,0.111924,0.246046,0.484665,-0.844176,0.592832,-0.0930208,0.230968,0.561934,0.76916,-0.928923,-0.59453,-0.857349
1,0,Sender,205,0.469829,0,0.18814,-0.781436,-0.683111,-0.351441,0.933774,0.0356072,-0.457091,-0.0356186,-0.744869,-0.727214,-0.631032,-0.173808,0.91631,0.395027,-0.0713066,-0.168564,-0.565048,0.266376,-0.113495,0.317757,0.250729,0.0519909,-0.225056,-0.952755,-0.845388,-0.0987218,-0.237159,-0.160066,-0.175054,-0.0713147,-0.919822,-0.792164,-0.905262,0.452994,0.588047,-0.545433,-0.757693,0.477151,-0.0713197
1,0,Sender,206,0.194458,0,0.713638,0.383309,-0.99091,-0.943826,0.315581,0.0934128,0.0730102,-0.415095,-0.573701,-0.069807,0.1275,-0.537612,-0.210871,0.226989,0.283185,-0.740307,-0.550747,0.0203462,-0.298943,0.816306,0.549438,0.737288,-0.771314,0.753292,0.828549,-0.27987,0.320477,-0.349234,-0.705245,-0.522487,-0.277531,-0.881754,0.570472,-0.472197,0.0631508,0.735038,-0.162922,0.319701,0.322658
1,0,Sender,207,0.3417,0,0.166679,-0.452093,0.901692,-0.744883,0.0805831,-0.089371,0.580725,0.731323,0.203926,0.233489,-0.353496,0.705979,0.429329,0.244661,0.0316567,-0.861257,0.0664073,0.370406,0.300857,0.969939,0.800757,0.00178516,0.448466,0.273593,0.90734,0.888369,-0.901885,-0.721293,0.954067,-0.571529,-0.164057,0.00333129,0.0510596,-0.279883,0.904113,0.61914,0.573578,0.264721,0.38693
1,0,Sender,208,0.167305,0,0.589453,-0.615681,0.819451,0.367779,0.0876408,0.355267,-0.364913,-0.355912,-0.723792,-0.995037,-0.430334,-0.573569,0.27176,-0.305332,0.0898337,-0.422089,-0.14085,0.00940569,-0.120856,0.0884157,0.546987,0.898519,0.560628,0.547442,0.367397,-0.917405,0.39155,0.947686,0.138567,-0.678503,0.433733,0.203916,0.811184,-0.73056,-0.460037,-0.365945,-0.0687238,0.541052,0.647367
1,0,Sender,209,0.330113,0,0.550769,-0.717026,-0.616375,-0.85569,0.272921,-0.400355,-0.698713,-0.567677,-0.624144,0.836704,0.439504,-0.281294,0.369378,0.76316,-0.71716,0.773099,0.251386,0.542482,-0.862239,0.506661,0.129067,0.794727,-0.53122,-0.377914,0.0479549,0.617585,0.774031,0.708991,0.326272,0.891112,-0.749704,0.630833,0.868601,0.960343,0.691019,0.929986,0.883191,0.0866561,-0.979256
1,0,Sender,210,0.9046,0,0.655749,0.0052959,0.9808,-0.802003,-0.609218,-0.937252,0.383222,0.200653,0.807505,0.670474,0.401731,0.476228,0.596269,0.923867,-0.255613,0.463489,-0.834874,-0.640185,-0.68317,0.22922,-0.684332,-0.0799127,0.830623,0.194811,0.443437,-0.801003,0.255284,0.958683,0.28272,0.245824,-0.827253,-0.321243,-0.246758,0.294258,0.175551,-0.398401,-0.0187308,-0.746308,0.747038
1,0,Sender,211,0.687505,0,0.647693,-0.721761,0.554999,-0.327724,0.804664,0.371321,0.457336,0.119827,0.81977,0.586366,0.992635,0.0655757,0.454544,0.955158,-0.547986,-0.0466155,0.26094,0.254415,0.840277,-0.895732,0.897767,-0.715971,-0.252207,0.609482,-0.975272,0.963066,-0.0483319,0.389134,0.0791639,-0.0662425,0.798952,-0.259665,-0.745122,-0.211516,-0.145125,0.5881,-0.166514,-0.117913,-0.269323
1,0,Sender,212,0.0904388,0,0.187379,0.434512,0.47378,-0.297616,0.38376,0.701126,-0.60478,-0.964459,-0.255847,-0.257848,-0.241921,0.843746,0.0311518,0.347379,-0.52734,0.983405,-0.931208,0.638398,0.279029,0.840042,0.994229,0.991717,0.666038,0.874448,0.0590245,0.920452,0.852705,-0.154516,0.781947,-0.623243,-0.228549,0.214811,-0.392651,-0.342108,-0.7187,-0.346507,0.522688,0.940847,0.894671
1,0,Sender,213,0.893789,0,0.161156,0.0324924,0.691745,0.871669,0.232517,0.0195733,0.963355,0.169544,0.222828,0.0884424,0.131404,0.00259223,-0.992485,0.170838,-0.913447,0.776515,-0.823585,-0.964214,0.0914373,0.734353,0.0551492,0.563078,-0.207695,0.757065,0.89199,-0.576487,0.869008,0.467974,0.173366,-0.572303,-0.529889,-0.551949,-0.595561,-0.0784191,-0.18932,-0.243739,-0.770129,0.29067,0.976116
1,0,Sender,214,0.841908,0,0.938114,-0.260568,-0.249439,0.0590414,0.116098,0.393376,0.723417,0.603297,-0.519969,0.983963,0.54976,0.744542,0.0704949,0.697662,-0.524591,0.688956,-0.152982,0.527862,0.439916,-0.480054,0.441477,-0.816451,0.295923,0.370077,-0.103548,0.893166,-0.190016,0.291391,0.505007,-0.811009,-0.12973,0.711023,0.146329,-0.987332,0.111144,-0.372041,-0.99023,0.581342,0.377065
1,0,Sender,215,0.81595,0,-0.637704,0.40775,0.0703474,-0.422883,0.211521,0.49085,0.732491,0.814301,-0.773602,0.665648,-0.213563,0.752274,-0.25018,0.366346,0.415001,0.0951506,0.363,-0.634162,-0.772856,0.614416,0.366207,0.663956,-0.338978,0.279309,-0.36301,0.0837914,0.487965,-0.477043,0.929572,0.842523,0.605044,0.382265,-0.91488,-0.931223,-0.468657,0.487086,0.616818,0.506116,0.393228
1,0,Sender,216,0.0213488,0,0.525221,-0.908508,0.830022,0.820665,0.681205,-0.144883,0.348107,0.709202,0.554035,0.330574,-0.0197692,0.556766,-0.399824,0.0534437,-0.00285082,0.901822,0.403302,-0.377742,-0.646545,-0.574161,0.586812,-0.814144,0.0354834,0.957291,0.338214,0.837976,-0.473064,0.911526,-0.317333,-0.834678,0.667836,-0.356976,0.228912,-0.366812,-0.780033,0.840419,-0.497288,-0.0259423,-0.85773
1,0,Sender,217,0.0779773,0,-0.20534,0.657699,-0.232142,0.141061,-0.687986,0.899656,0.38801,0.818796,-0.583547,-0.992111,0.508023,0.979894,0.608404,-0.0064366,-0.945071,0.0101383,-0.134061,0.129952,0.380551,-0.283493,0.0368063,-0.392675,-0.171205,0.238742,0.87017,0.482061,-0.501256,0.797543,-0.29052,-0.641354,-0.19326,0.737551,0.814347,0.589234,0.651356,0.724291,-0.544372,0.599974,-0.218201
1,0,Sender,218,0.116511,0,-0.29459,-0.77384,0.418031,0.543409,0.113569,-0.732804,-0.886299,0.75663,-0.331065,0.725038,0.895262,0.691026,0.26614,-0.162349,-0.369427,0.16179,-0.15027,-0.673584,0.42316,-0.765364,-0.312487,-0.975812,0.827519,0.35379,0.65936,0.0472163,-0.837433,0.97279,-0.07726,0.576141,-0.817282,-0.669114,0.497767,-0.0140444,-0.978843,-0.445065,0.466365,0.167634,0.891102
1,0,Sender,219,0.458034,0,-0.717811,0.926507,0.511417,-0.554616,-0.17411,0.0580965,0.894782,0.749092,0.141786,-0.931865,-0.920036,-0.465938,0.833443,0.557448,-0.195975,0.182989,-0.0468786,0.884488,-0.904722,0.0241647,-0.176222,-0.327211,0.956145,0.367057,-0.118554,-0.481274,0.831499,0.622094,0.0478672,-0.787887,-0.895617,-0.691672,0.79912,-0.385225,0.137784,0.904671,0.777786,0.991574,0.821898
1,0,Sender,220,0.788632,0,-0.435979,0.339791,0.517044,0.283387,-0.445733,0.513277,-0.549192,0.650474,-0.321177,0.185537,-0.576153,-0.752359,-0.349421,0.185066,0.893457,0.439648,-0.683211,-0.243659,0.524225,0.333975,-0.33837,-0.322642,0.90977,0.141099,-0.846178,-0.421647,-0.678426,-0.819587,0.291214,-0.839722,0.0969812,0.821917,0.674153,0.763335,0.654345,0.515486,0.878669,0.781341,0.0259437
1,0,Sender,221,0.278145,0,0.817395,0.265797,-0.998572,-0.252414,0.680895,-0.356269,0.54752,0.537188,0.237387,-0.207316,-0.168008,0.685877,0.390776,-0.462814,-0.167801,0.294393,-0.528613,0.724488,-0.151391,-0.345798,-0.22283,0.421753,-0.949496,-0.195629,0.446454,-0.197599,-0.623618,-0.278323,-0.436976,0.759701,0.721453,-0.744173,-0.534991,0.810399,-0.613917,0.696987,0.395376,-0.305525,-0.930833
1,0,Sender,222,0.807448,0,-0.685757,-0.202684,0.977293,-0.514576,0.890731,-0.62218,-0.649534,0.8899,-0.775404,-0.955347,0.133365,0.997019,0.723576,0.598789,0.104719,0.285029,-0.372596,-0.128229,0.529924,-0.0725866,-0.974409,0.0122107,-0.947982,0.316788,-0.681879,0.0903774,-0.323763,0.68569,-0.296678,0.265795,0.248361,-0.926168,-0.976624,0.991376,-0.665428,0.706036,-0.759817,0.564619,-0.665165
1,0,Sender,223,0.13887,0,0.5191,0.974771,0.143346,-0.494675,-0.0266389,-0.761165,0.475753,-0.128005,0.212277,0.926049,-0.887581,0.753587,0.261645,0.640464,-0.751677,-0.631058,-0.66632,-0.358083,0.988515,0.793412,0.897206,0.699016,-0.881667,0.394362,0.551059,-0.522798,-0.290469,0.93376,0.67486,0.261436,-0.619456,0.628133,-0.305069,-0.130936,0.377707,-0.106859,0.705829,0.107768,-0.962831
1,0,Sender,224,0.265219,0,0.813439,-0.515375,0.356963,0.624056,0.537666,-0.785022,0.11708,0.957814,0.678641,-0.85192,-0.409388,-0.392356,-0.709876,0.634202,-0.815765,0.0184178,0.417491,0.60387,-0.194331,0.781216,0.453025,0.459818,0.863213,0.893669,-0.285854,0.956739,-0.153761,-0.204214,0.198849,-0.635188,0.14503,0.115281,0.60803,-0.260914,0.501861,0.167883,-0.933344,0.322516,-0.897978
1,0,Sender,225,0.320781,0,0.237709,0.00845806,0.534139,-0.689552,0.0340337,0.83375,0.476602,0.647793,-0.914689,-0.701848,0.351665,0.989069,-0.934268,-0.858369,0.563481,-0.501931,0.915771,-0.607261,-0.169368,-0.863147,-0.0999495,-0.614035,-0.661587,-0.390257,-0.694197,-0.2583,0.205057,0.411592,-0.235341,0.0275706,-0.644656,0.888805,-0.697786,0.183281,-0.253363,0.0191351,0.646329,-0.808012,0.229227
1,0,Sender,226,0.47782,0,0.696054,-0.710691,0.575334,-0.838357,-0.977865,0.304305,-0.288878,0.952554,0.469484,-0.672642,-0.52995,0.647329,0.2657,0.801967,0.547753,-0.53921,-0.780409,0.270751,-0.698495,0.968776,0.302935,-0.794867,0.577222,-0.447839,-0.420137,0.742459,0.0991233,-0.408055,0.46921,-0.0903308,0.51474,-0.60407,-0.489505,0.840671,0.934899,0.757311,-0.344747,-0.556801,0.146857
1,0,Sender,227,0.146827,0,0.373959,0.0591369,-0.64046,0.527831,-0.00248741,-0.536026,0.560359,0.815881,0.459899,-0.45861,0.78373,0.436364,0.0761687,0.883549,0.29301,-0.387026,-0.197737,0.0451327,0.27409,0.145707,-0.0672604,0.563315,-0.621053,0.0943813,-0.0598843,0.490491,0.0104323,0.508431,0.665453,-0.658344,-0.0930502,-0.697296,-0.351693,-0.372599,-0.227581,-0.279507,0.542413,-0.981036,0.452536
1,0,Sender,228,0.953451,0,0.101172,-0.818591,-0.078646,-0.762692,0.870171,-0.588321,-0.20953,-0.782248,0.568146,-0.316502,0.00873667,-0.14414,0.601678,-0.246868,0.951582,-0.894371,0.502034,-0.351817,-0.0167753,0.191871,0.833461,0.553083,-0.8427,-0.895031,0.52105,0.650809,0.00427868,-0.0558875,0.330816,-0.193384,0.243338,-0.860244,-0.0874744,-0.585057,-0.213859,0.0218807,0.282058,-0.922974,-0.381406
1,0,Sender,229,0.817772,0,0.647106,0.359185,0.230044,0.985216,-0.308392,0.865527,0.207434,-0.9676,0.507522,-0.960429,-0.135091,0.996096,-0.972699,-0.713649,-0.0731952,0.921023,-0.672197,-0.329411,-0.404393,-0.133727,-0.777951,0.0764307,0.0970245,-0.902274,-0.517573,0.726031,0.227602,0.342524,-0.622073,-0.629496,-0.668068,0.816508,-0.180826,-0.401045,0.812897,-0.798947,-0.698852,0.416638,-0.546868
1,0,Sender,230,0.966977,0,0.46815,0.759461,0.377239,0.469235,0.747276,-0.769761,0.903502,-0.705902,0.273558,-0.153622,-0.709989,0.000857249,-0.271211,-0.671288,-0.684072,0.74436,-0.741769,0.662415,-0.199139,0.447216,-0.185756,0.813473,-0.197407,-0.474197,0.467593,-0.618654,0.0998403,-0.525,0.799755,-0.0943246,-0.000507936,0.55376,0.31585,-0.396059,-0.450189,-0.990499,0.412594,0.260418,0.974613
1,0,Sender,231,0.451445,0,0.667449,0.727689,-0.355905,-0.240116,-0.460745,0.291298,-0.358615,0.00387463,-0.0792815,0.197847,-0.889769,0.117158,-0.539123,-0.479354,-0.459641,0.225386,0.382687,-0.0590147,-0.737762,-0.823517,0.0758778,-0.297291,0.292292,0.612989,0.501317,0.135937,-0.949029,-0.503768,-0.025445,-0.816935,0.225796,0.336516,-0.816474,-0.0478761,-0.629912,-0.705924,-0.462257,0.266433,0.200049
1,0,Sender,232,0.666435,0,-0.763519,-0.803509,0.74136,-0.203392,0.841493,0.484575,-0.645797,-0.555571,0.0597701,-0.402364,0.842233,0.595,-0.407557,-0.570451,-0.859744,-0.926995,0.834307,-0.452841,-0.804835,0.287708,-0.527271,0.737649,0.00980451,0.891648,-0.840699,-0.733719,-0.130178,0.552585,0.621635,-0.48683,0.694376,-0.527662,-0.28536,-0.119023,-0.0643393,0.477581,0.483501,0.691034,0.731736
1,0,Sender,233,0.687807,0,0.524087,0.666327,-0.61576,-0.0902056,-0.073941,0.791888,-0.828995,-0.689377,0.344541,0.295632,-0.398601,0.964162,-0.811635,-0.856183,0.275861,-0.524175,0.00709145,0.327328,0.993581,-0.5689,-0.402291,0.328838,0.906208,-0.384079,0.824156,-0.115868,-0.139071,-0.381504,0.586507,-0.420545,0.513731,0.185388,-0.645773,0.0200222,0.55116,-0.953089,-0.50743,0.374538,-0.520939
1,0,Sender,234,0.595896,0,0.724314,-0.387197,-0.262245,-0.782313,0.35895,-0.565994,0.0327339,0.610223,-0.673717,-0.160963,-0.884635,-0.517125,-0.732898,0.904482,0.252304,0.318395,-0.415137,-0.905127,-0.628234,0.027464,-0.696664,0.204407,-0.20721,0.618672,-0.934787,-0.543762,0.813652,0.580132,0.0528181,0.918656,-0.0760931,0.587042,0.428524,-0.438135,0.0637458,-0.751558,-0.618454,0.923379,0.576472
1,0,Sender,235,0.0232759,0,0.746751,0.615287,-0.201071,-0.264281,0.819048,0.732211,0.698847,0.407745,-0.379294,-0.26541,0.38688,-0.752198,0.963514,-0.154346,-0.636405,0.487757,0.538251,-0.0796823,0.989708,0.626092,0.2072,0.615492,-0.312088,0.956237,-0.0541068,-0.910506,0.543212,-0.108429,0.362226,-0.510691,-0.388148,0.860903,-0.864976,-0.66835,0.0870014,0.233658,-0.650039,-0.560373,-0.825464
1,0,Sender,236,0.186262,0,0.282904,-0.324042,-0.0660867,0.242952,0.449959,0.533929,-0.329665,0.587781,-0.217934,-0.832706,0.705752,0.543019,-0.901807,-0.943518,-0.471096,0.342019,-0.0222962,-0.398116,-0.92054,0.851119,-0.462845,0.359389,0.567349,-0.647691,-0.230127,-0.721578,0.340674,-0.00449159,-0.0731538,-0.840332,0.301721,-0.622808,-0.209323,0.766834,-0.0604527,-0.952135,0.305798,0.912211,0.944701
1,0,Sender,237,0.439578,0,-0.583221,-0.980726,0.248631,0.883222,-0.381101,0.456997,-0.397761,0.667255,-0.0990357,0.463051,-0.771019,0.0247888,-0.972605,0.354303,-0.863522,-0.187949,0.206632,-0.144951,-0.929347,0.137816,-0.242514,0.392529,-0.53824,0.872609,-0.152714,0.813727,0.465325,0.168904,0.421289,0.103703,-0.844812,-0.70101,-0.158957,0.249341,-0.633816,0.510254,-0.925937,0.36577,-0.796087
1,0,Sender,238,0.583619,0,0.440355,-0.137314,-0.623782,0.376458,0.720328,0.0986873,0.653174,-0.130302,-0.438939,0.212219,0.519035,-0.87369,-0.95209,0.425891,-0.592547,-0.721202,-0.641021,0.283033,0.156912,-0.715303,-0.623006,-0.933136,0.351517,-0.0143594,-0.289393,-0.116721,-0.064084,0.592954,0.110338,0.581673,0.621937,0.488501,0.103383,-0.408307,-0.108748,-0.94376,-0.469842,0.873256,-0.585841
1,0,Sender,239,0.546324,0,-0.270862,0.134284,-0.3475,-0.819037,-0.138421,-0.294421,0.42918,-0.725735,-0.387912,0.177525,0.453393,0.897161,0.256414,-0.00341833,-0.200588,-0.512473,0.0618803,0.923007,-0.806444,-0.145827,0.154756,0.409866,-0.822244,-0.29665,0.933422,0.570811,0.810282,0.643313,0.187873,-0.083129,0.640168,-0.822473,0.173959,0.981953,0.80661,0.746618,-0.311492,0.564675,0.462631
1,0,Sender,240,0.976415,0,-0.445776,0.758052,-0.991579,-0.828096,0.735734,-0.246975,-0.542994,-0.318269,-0.540535,0.861848,0.673971,0.950196,0.864269,-0.512119,-0.838938,-0.150669,-0.447162,0.883684,-0.566497,0.299555,0.094133,0.35603,-0.646739,-0.445554,-0.34532,0.274469,-0.642792,-0.692605,0.951436,-0.300951,-0.370474,-0.881176,0.442534,-0.350491,0.896649,-0.460506,0.945509,0.484127,-0.453946
1,0,Sender,241,0.060486,0,0.999913,-0.582712,0.895914,0.510154,0.539265,-0.970675,0.0131831,-0.47727,-0.131724,0.649378,0.546731,0.769256,0.730498,0.56741,-0.602475,-0.0912654,-0.292092,-0.727764,-0.302874,-0.914922,0.439867,-0.512874,0.999012,0.63094,0.455269,-0.847717,-0.199473,0.95303,-0.705828,-0.45843,0.0530117,0.22949,0.452949,-0.327528,-0.0777559,0.876251,-0.395055,-0.848634,-0.0104835
1,0,Sender,242,0.297418,0,0.144532,0.039388,0.0399759,-0.0793827,0.779664,-0.195556,0.566254,-0.387265,0.811652,0.372587,0.381663,0.956846,-0.0603991,0.15032,-0.29691,0.938353,0.932307,0.998264,-0.086535,-0.511205,0.787573,-0.794438,-0.98958,-0.380749,-0.306874,-0.013945,0.500525,0.0795893,0.546319,0.68686,-0.297975,-0.119016,-0.683703,0.244766,-0.618664,0.247293,-0.00956552,0.510436,0.765206
1,0,Sender,243,0.255281,0,-0.0566805,0.789858,0.0758619,-0.420489,0.909295,0.294327,0.00311891,0.455114,0.146848,0.932984,0.494964,0.751897,-0.426081,0.254751,0.603421,0.950096,-0.727337,-0.293288,0.20657,0.201161,0.69528,-0.130576,0.841196,0.0572337,0.840945,-0.0651421,-0.824521,-0.780244,-0.521666,-0.129757,-0.170692,0.494827,0.204307,-0.590482,-0.240521,-0.235642,0.0558699,0.967031,-0.57152
1,0,Sender,244,0.802201,0,0.236992,0.924703,-0.80027,-0.968005,0.568587,-0.243468,-0.135726,-0.160483,-0.641401,-0.947924,-0.88975,0.415471,-0.108069,0.169245,0.523213,0.168476,-0.866826,-0.709677,-0.812969,-0.549706,-0.398654,-0.366272,0.25873,-0.0436302,0.126894,0.159874,-0.633276,-0.130913,0.4904,0.218196,0.787798,0.895549,-0.0728319,-0.922732,0.701612,0.287232,0.879836,0.0148383,0.273743
1,0,Sender,245,0.468679,0,-0.791961,0.191051,0.839279,0.768672,0.102299,-0.433659,-0.672829,0.31275,0.107957,0.269858,0.179014,-0.298911,-0.911584,-0.727381,0.57392,0.202607,-0.595909,0.335104,-0.543214,-0.296415,-0.452284,0.313333,0.790396,-0.611853,-0.266278,0.428323,-0.718819,-0.796986,-0.0926256,-0.4882,-0.920909,0.0447191,0.255318,0.662225,0.807973,0.83218,-0.802187,0.268895,0.848074
1,0,Sender,246,0.189131,0,0.004152,-0.911152,0.562426,-0.0400243,-0.902886,-0.0625851,0.688504,0.0722736,0.848544,-0.269678,-0.148659,0.560628,0.370203,-0.0670408,-0.00658764,-0.542033,0.253348,0.264262,-0.429611,-0.607177,-0.177937,0.227036,0.0526147,0.845115,-0.70942,-0.726811,0.100631,0.880446,-0.357068,-0.471734,0.802493,0.217074,0.683964,-0.490876,-0.662003,0.640519,0.225655,-0.937365,0.995749
1,0,Sender,247,0.680059,0,0.535386,-0.654504,0.365837,-0.758937,-0.713801,0.345483,0.877182,0.521634,-0.857566,-0.575421,0.593608,0.274877,-0.764353,0.188034,0.749514,0.911815,0.778733,-0.623631,0.698707,0.744287,-0.820903,-0.29425,0.0339148,-0.922034,-0.480977,-0.567048,0.4272,-0.712481,0.623705,-0.786739,0.0221762,-0.097534,0.676034,0.0394209,-0.495222,-0.147176,-0.525577,0.99476,-0.588709
1,0,Sender,248,0.522945,0,0.39852,-0.903163,-0.607966,-0.297909,0.177394,-0.318416,0.222491,0.505666,-0.137396,0.0759807,-0.0753034,-0.630261,-0.106465,0.229591,-0.946248,-0.0569512,-0.0725237,0.994671,0.0357228,0.483437,-0.72687,-0.316455,0.650101,-0.466544,-0.253606,-0.902972,-0.82898,0.926438,0.748477,-0.106932,-0.178173,0.686253,-0.839042,-0.196106,0.0933624,0.365827,-0.0884608,0.493644,-0.427101
1,0,Sender,249,0.889376,0,0.892411,-0.631471,-0.373717,-0.152483,-0.658819,-0.0312253,0.200425,0.784621,-0.0567628,0.00569817,-0.785535,0.70096,-0.526516,-0.862938,0.18831,-0.772172,0.270906,-0.520512,0.556872,0.81153,0.0715686,-0.205798,0.438193,0.898261,-0.327957,-0.241622,0.0116413,0.647804,0.078062,-0.61582,0.720872,0.16642,0.870281,0.299088,0.61217,0.3212,-0.694216,-0.844025,0.532449
1,0,Sender,250,0.53887,0,0.236738,-0.777819,-0.542212,0.763033,0.040438,-0.922999,-0.0176241,0.0117312,-0.251526,-0.71645,0.298979,-0.615829,0.833916,0.113365,-0.369158,0.689523,-0.389224,-0.773927,-0.355997,0.86323,-0.581418,0.0446117,0.113657,-0.464092,0.264219,-0.29013,0.795568,0.513653,-0.305161,-0.917418,-0.93585,-0.458488,0.125228,0.939132,-0.763419,0.457953,-0.0220942,-0.880944,-0.854523
1,0,Sender,251,0.567039,0,0.526291,-0.0697911,-0.595523,0.710398,0.00370962,0.611659,-0.566703,0.105454,-0.530288,0.469956,0.902043,0.152407,-0.691527,0.361043,0.923591,0.242613,0.534974,-0.728893,-0.867799,-0.0210428,0.96927,0.406665,-0.883245,0.354244,-0.29919,-0.335471,0.96911,0.384083,0.901948,-0.799117,-0.808904,0.0832758,-0.195549,-0.715835,-0.0354489,-0.587207,-0.438535,-0.26933,-0.000933703
